digraph Tree {
node [shape=box] ;
0 [label="X[0] <= 3073.5\ngini = 0.549\nsamples = 80000\nvalue = [18645, 50155, 2160, 2160, 2560, 2160, 2160]"] ;
1 [label="X[10] <= 0.5\ngini = 0.462\nsamples = 67230\nvalue = [10153, 48030, 2160, 2160, 2560, 2160, 7]"] ;
0 -> 1 [labeldistance=2.5, labelangle=45, headlabel="True"] ;
2 [label="X[0] <= 2692.5\ngini = 0.792\nsamples = 8874\nvalue = [336, 747, 2160, 2160, 1304, 2160, 7]"] ;
1 -> 2 ;
3 [label="X[0] <= 2369.5\ngini = 0.693\nsamples = 6479\nvalue = [11, 111, 2050, 2160, 152, 1995, 0]"] ;
2 -> 3 ;
4 [label="X[6] <= 195.5\ngini = 0.596\nsamples = 3706\nvalue = [0, 5, 940, 2034, 0, 727, 0]"] ;
3 -> 4 ;
5 [label="X[3] <= 15.0\ngini = 0.634\nsamples = 1264\nvalue = [0, 4, 554, 234, 0, 472, 0]"] ;
4 -> 5 ;
6 [label="X[0] <= 2283.0\ngini = 0.233\nsamples = 139\nvalue = [0, 0, 11, 121, 0, 7, 0]"] ;
5 -> 6 ;
7 [label="X[23] <= 0.5\ngini = 0.171\nsamples = 130\nvalue = [0, 0, 9, 118, 0, 3, 0]"] ;
6 -> 7 ;
8 [label="X[0] <= 1967.5\ngini = 0.075\nsamples = 104\nvalue = [0, 0, 2, 100, 0, 2, 0]"] ;
7 -> 8 ;
9 [label="gini = 0.0\nsamples = 1\nvalue = [0, 0, 0, 0, 0, 1, 0]"] ;
8 -> 9 ;
10 [label="X[7] <= 247.5\ngini = 0.057\nsamples = 103\nvalue = [0, 0, 2, 100, 0, 1, 0]"] ;
8 -> 10 ;
11 [label="X[0] <= 2264.5\ngini = 0.02\nsamples = 97\nvalue = [0, 0, 0, 96, 0, 1, 0]"] ;
10 -> 11 ;
12 [label="gini = 0.0\nsamples = 92\nvalue = [0, 0, 0, 92, 0, 0, 0]"] ;
11 -> 12 ;
13 [label="X[5] <= 1190.5\ngini = 0.32\nsamples = 5\nvalue = [0, 0, 0, 4, 0, 1, 0]"] ;
11 -> 13 ;
14 [label="gini = 0.0\nsamples = 4\nvalue = [0, 0, 0, 4, 0, 0, 0]"] ;
13 -> 14 ;
15 [label="gini = 0.0\nsamples = 1\nvalue = [0, 0, 0, 0, 0, 1, 0]"] ;
13 -> 15 ;
16 [label="X[1] <= 249.0\ngini = 0.444\nsamples = 6\nvalue = [0, 0, 2, 4, 0, 0, 0]"] ;
10 -> 16 ;
17 [label="gini = 0.0\nsamples = 4\nvalue = [0, 0, 0, 4, 0, 0, 0]"] ;
16 -> 17 ;
18 [label="gini = 0.0\nsamples = 2\nvalue = [0, 0, 2, 0, 0, 0, 0]"] ;
16 -> 18 ;
19 [label="X[1] <= 346.5\ngini = 0.447\nsamples = 26\nvalue = [0, 0, 7, 18, 0, 1, 0]"] ;
7 -> 19 ;
20 [label="X[8] <= 190.5\ngini = 0.335\nsamples = 20\nvalue = [0, 0, 3, 16, 0, 1, 0]"] ;
19 -> 20 ;
21 [label="X[9] <= 690.0\ngini = 0.204\nsamples = 18\nvalue = [0, 0, 1, 16, 0, 1, 0]"] ;
20 -> 21 ;
22 [label="gini = 0.0\nsamples = 14\nvalue = [0, 0, 0, 14, 0, 0, 0]"] ;
21 -> 22 ;
23 [label="X[1] <= 12.0\ngini = 0.625\nsamples = 4\nvalue = [0, 0, 1, 2, 0, 1, 0]"] ;
21 -> 23 ;
24 [label="gini = 0.0\nsamples = 2\nvalue = [0, 0, 0, 2, 0, 0, 0]"] ;
23 -> 24 ;
25 [label="X[1] <= 172.0\ngini = 0.5\nsamples = 2\nvalue = [0, 0, 1, 0, 0, 1, 0]"] ;
23 -> 25 ;
26 [label="gini = 0.0\nsamples = 1\nvalue = [0, 0, 0, 0, 0, 1, 0]"] ;
25 -> 26 ;
27 [label="gini = 0.0\nsamples = 1\nvalue = [0, 0, 1, 0, 0, 0, 0]"] ;
25 -> 27 ;
28 [label="gini = 0.0\nsamples = 2\nvalue = [0, 0, 2, 0, 0, 0, 0]"] ;
20 -> 28 ;
29 [label="X[1] <= 356.5\ngini = 0.444\nsamples = 6\nvalue = [0, 0, 4, 2, 0, 0, 0]"] ;
19 -> 29 ;
30 [label="gini = 0.0\nsamples = 3\nvalue = [0, 0, 3, 0, 0, 0, 0]"] ;
29 -> 30 ;
31 [label="X[1] <= 358.5\ngini = 0.444\nsamples = 3\nvalue = [0, 0, 1, 2, 0, 0, 0]"] ;
29 -> 31 ;
32 [label="gini = 0.0\nsamples = 2\nvalue = [0, 0, 0, 2, 0, 0, 0]"] ;
31 -> 32 ;
33 [label="gini = 0.0\nsamples = 1\nvalue = [0, 0, 1, 0, 0, 0, 0]"] ;
31 -> 33 ;
34 [label="X[5] <= 1323.0\ngini = 0.642\nsamples = 9\nvalue = [0, 0, 2, 3, 0, 4, 0]"] ;
6 -> 34 ;
35 [label="X[0] <= 2298.0\ngini = 0.48\nsamples = 5\nvalue = [0, 0, 2, 3, 0, 0, 0]"] ;
34 -> 35 ;
36 [label="gini = 0.0\nsamples = 2\nvalue = [0, 0, 2, 0, 0, 0, 0]"] ;
35 -> 36 ;
37 [label="gini = 0.0\nsamples = 3\nvalue = [0, 0, 0, 3, 0, 0, 0]"] ;
35 -> 37 ;
38 [label="gini = 0.0\nsamples = 4\nvalue = [0, 0, 0, 0, 0, 4, 0]"] ;
34 -> 38 ;
39 [label="X[30] <= 0.5\ngini = 0.586\nsamples = 1125\nvalue = [0, 4, 543, 113, 0, 465, 0]"] ;
5 -> 39 ;
40 [label="X[9] <= 590.0\ngini = 0.558\nsamples = 1063\nvalue = [0, 4, 530, 66, 0, 463, 0]"] ;
39 -> 40 ;
41 [label="X[5] <= 1201.5\ngini = 0.508\nsamples = 394\nvalue = [0, 3, 251, 28, 0, 112, 0]"] ;
40 -> 41 ;
42 [label="X[16] <= 0.5\ngini = 0.443\nsamples = 329\nvalue = [0, 3, 236, 28, 0, 62, 0]"] ;
41 -> 42 ;
43 [label="X[6] <= 173.5\ngini = 0.405\nsamples = 317\nvalue = [0, 3, 236, 16, 0, 62, 0]"] ;
42 -> 43 ;
44 [label="X[3] <= 87.5\ngini = 0.27\nsamples = 217\nvalue = [0, 0, 183, 5, 0, 29, 0]"] ;
43 -> 44 ;
45 [label="X[5] <= 238.0\ngini = 0.48\nsamples = 59\nvalue = [0, 0, 38, 2, 0, 19, 0]"] ;
44 -> 45 ;
46 [label="X[12] <= 0.5\ngini = 0.095\nsamples = 20\nvalue = [0, 0, 19, 0, 0, 1, 0]"] ;
45 -> 46 ;
47 [label="gini = 0.0\nsamples = 19\nvalue = [0, 0, 19, 0, 0, 0, 0]"] ;
46 -> 47 ;
48 [label="gini = 0.0\nsamples = 1\nvalue = [0, 0, 0, 0, 0, 1, 0]"] ;
46 -> 48 ;
49 [label="X[5] <= 764.0\ngini = 0.547\nsamples = 39\nvalue = [0, 0, 19, 2, 0, 18, 0]"] ;
45 -> 49 ;
50 [label="X[1] <= 355.5\ngini = 0.494\nsamples = 26\nvalue = [0, 0, 7, 2, 0, 17, 0]"] ;
49 -> 50 ;
51 [label="X[8] <= 221.0\ngini = 0.413\nsamples = 24\nvalue = [0, 0, 7, 0, 0, 17, 0]"] ;
50 -> 51 ;
52 [label="X[6] <= 165.5\ngini = 0.351\nsamples = 22\nvalue = [0, 0, 5, 0, 0, 17, 0]"] ;
51 -> 52 ;
53 [label="X[1] <= 3.5\ngini = 0.255\nsamples = 20\nvalue = [0, 0, 3, 0, 0, 17, 0]"] ;
52 -> 53 ;
54 [label="gini = 0.0\nsamples = 1\nvalue = [0, 0, 1, 0, 0, 0, 0]"] ;
53 -> 54 ;
55 [label="X[9] <= 454.5\ngini = 0.188\nsamples = 19\nvalue = [0, 0, 2, 0, 0, 17, 0]"] ;
53 -> 55 ;
56 [label="X[1] <= 326.0\ngini = 0.408\nsamples = 7\nvalue = [0, 0, 2, 0, 0, 5, 0]"] ;
55 -> 56 ;
57 [label="gini = 0.0\nsamples = 5\nvalue = [0, 0, 0, 0, 0, 5, 0]"] ;
56 -> 57 ;
58 [label="gini = 0.0\nsamples = 2\nvalue = [0, 0, 2, 0, 0, 0, 0]"] ;
56 -> 58 ;
59 [label="gini = 0.0\nsamples = 12\nvalue = [0, 0, 0, 0, 0, 12, 0]"] ;
55 -> 59 ;
60 [label="gini = 0.0\nsamples = 2\nvalue = [0, 0, 2, 0, 0, 0, 0]"] ;
52 -> 60 ;
61 [label="gini = 0.0\nsamples = 2\nvalue = [0, 0, 2, 0, 0, 0, 0]"] ;
51 -> 61 ;
62 [label="gini = 0.0\nsamples = 2\nvalue = [0, 0, 0, 2, 0, 0, 0]"] ;
50 -> 62 ;
63 [label="X[0] <= 2295.0\ngini = 0.142\nsamples = 13\nvalue = [0, 0, 12, 0, 0, 1, 0]"] ;
49 -> 63 ;
64 [label="gini = 0.0\nsamples = 12\nvalue = [0, 0, 12, 0, 0, 0, 0]"] ;
63 -> 64 ;
65 [label="gini = 0.0\nsamples = 1\nvalue = [0, 0, 0, 0, 0, 1, 0]"] ;
63 -> 65 ;
66 [label="X[7] <= 251.5\ngini = 0.153\nsamples = 158\nvalue = [0, 0, 145, 3, 0, 10, 0]"] ;
44 -> 66 ;
67 [label="X[5] <= 546.5\ngini = 0.133\nsamples = 155\nvalue = [0, 0, 144, 1, 0, 10, 0]"] ;
66 -> 67 ;
68 [label="X[3] <= 101.5\ngini = 0.022\nsamples = 91\nvalue = [0, 0, 90, 0, 0, 1, 0]"] ;
67 -> 68 ;
69 [label="X[0] <= 2082.5\ngini = 0.165\nsamples = 11\nvalue = [0, 0, 10, 0, 0, 1, 0]"] ;
68 -> 69 ;
70 [label="gini = 0.0\nsamples = 8\nvalue = [0, 0, 8, 0, 0, 0, 0]"] ;
69 -> 70 ;
71 [label="X[5] <= 360.5\ngini = 0.444\nsamples = 3\nvalue = [0, 0, 2, 0, 0, 1, 0]"] ;
69 -> 71 ;
72 [label="gini = 0.0\nsamples = 2\nvalue = [0, 0, 2, 0, 0, 0, 0]"] ;
71 -> 72 ;
73 [label="gini = 0.0\nsamples = 1\nvalue = [0, 0, 0, 0, 0, 1, 0]"] ;
71 -> 73 ;
74 [label="gini = 0.0\nsamples = 80\nvalue = [0, 0, 80, 0, 0, 0, 0]"] ;
68 -> 74 ;
75 [label="X[9] <= 563.0\ngini = 0.268\nsamples = 64\nvalue = [0, 0, 54, 1, 0, 9, 0]"] ;
67 -> 75 ;
76 [label="X[7] <= 246.0\ngini = 0.191\nsamples = 57\nvalue = [0, 0, 51, 1, 0, 5, 0]"] ;
75 -> 76 ;
77 [label="X[5] <= 556.0\ngini = 0.163\nsamples = 56\nvalue = [0, 0, 51, 0, 0, 5, 0]"] ;
76 -> 77 ;
78 [label="gini = 0.0\nsamples = 1\nvalue = [0, 0, 0, 0, 0, 1, 0]"] ;
77 -> 78 ;
79 [label="X[5] <= 662.5\ngini = 0.135\nsamples = 55\nvalue = [0, 0, 51, 0, 0, 4, 0]"] ;
77 -> 79 ;
80 [label="X[9] <= 259.0\ngini = 0.32\nsamples = 20\nvalue = [0, 0, 16, 0, 0, 4, 0]"] ;
79 -> 80 ;
81 [label="gini = 0.0\nsamples = 2\nvalue = [0, 0, 0, 0, 0, 2, 0]"] ;
80 -> 81 ;
82 [label="X[5] <= 658.5\ngini = 0.198\nsamples = 18\nvalue = [0, 0, 16, 0, 0, 2, 0]"] ;
80 -> 82 ;
83 [label="X[1] <= 8.0\ngini = 0.111\nsamples = 17\nvalue = [0, 0, 16, 0, 0, 1, 0]"] ;
82 -> 83 ;
84 [label="gini = 0.0\nsamples = 1\nvalue = [0, 0, 0, 0, 0, 1, 0]"] ;
83 -> 84 ;
85 [label="gini = 0.0\nsamples = 16\nvalue = [0, 0, 16, 0, 0, 0, 0]"] ;
83 -> 85 ;
86 [label="gini = 0.0\nsamples = 1\nvalue = [0, 0, 0, 0, 0, 1, 0]"] ;
82 -> 86 ;
87 [label="gini = 0.0\nsamples = 35\nvalue = [0, 0, 35, 0, 0, 0, 0]"] ;
79 -> 87 ;
88 [label="gini = 0.0\nsamples = 1\nvalue = [0, 0, 0, 1, 0, 0, 0]"] ;
76 -> 88 ;
89 [label="X[4] <= 59.0\ngini = 0.49\nsamples = 7\nvalue = [0, 0, 3, 0, 0, 4, 0]"] ;
75 -> 89 ;
90 [label="X[1] <= 345.0\ngini = 0.375\nsamples = 4\nvalue = [0, 0, 3, 0, 0, 1, 0]"] ;
89 -> 90 ;
91 [label="gini = 0.0\nsamples = 3\nvalue = [0, 0, 3, 0, 0, 0, 0]"] ;
90 -> 91 ;
92 [label="gini = 0.0\nsamples = 1\nvalue = [0, 0, 0, 0, 0, 1, 0]"] ;
90 -> 92 ;
93 [label="gini = 0.0\nsamples = 3\nvalue = [0, 0, 0, 0, 0, 3, 0]"] ;
89 -> 93 ;
94 [label="X[1] <= 230.5\ngini = 0.444\nsamples = 3\nvalue = [0, 0, 1, 2, 0, 0, 0]"] ;
66 -> 94 ;
95 [label="gini = 0.0\nsamples = 2\nvalue = [0, 0, 0, 2, 0, 0, 0]"] ;
94 -> 95 ;
96 [label="gini = 0.0\nsamples = 1\nvalue = [0, 0, 1, 0, 0, 0, 0]"] ;
94 -> 96 ;
97 [label="X[3] <= 237.0\ngini = 0.597\nsamples = 100\nvalue = [0, 3, 53, 11, 0, 33, 0]"] ;
43 -> 97 ;
98 [label="X[8] <= 133.0\ngini = 0.621\nsamples = 63\nvalue = [0, 3, 22, 7, 0, 31, 0]"] ;
97 -> 98 ;
99 [label="X[4] <= 126.0\ngini = 0.311\nsamples = 26\nvalue = [0, 0, 5, 0, 0, 21, 0]"] ;
98 -> 99 ;
100 [label="X[5] <= 193.5\ngini = 0.269\nsamples = 25\nvalue = [0, 0, 4, 0, 0, 21, 0]"] ;
99 -> 100 ;
101 [label="gini = 0.0\nsamples = 1\nvalue = [0, 0, 1, 0, 0, 0, 0]"] ;
100 -> 101 ;
102 [label="X[5] <= 801.5\ngini = 0.219\nsamples = 24\nvalue = [0, 0, 3, 0, 0, 21, 0]"] ;
100 -> 102 ;
103 [label="X[2] <= 37.5\ngini = 0.159\nsamples = 23\nvalue = [0, 0, 2, 0, 0, 21, 0]"] ;
102 -> 103 ;
104 [label="X[5] <= 567.0\ngini = 0.091\nsamples = 21\nvalue = [0, 0, 1, 0, 0, 20, 0]"] ;
103 -> 104 ;
105 [label="gini = 0.0\nsamples = 16\nvalue = [0, 0, 0, 0, 0, 16, 0]"] ;
104 -> 105 ;
106 [label="X[6] <= 185.0\ngini = 0.32\nsamples = 5\nvalue = [0, 0, 1, 0, 0, 4, 0]"] ;
104 -> 106 ;
107 [label="gini = 0.0\nsamples = 4\nvalue = [0, 0, 0, 0, 0, 4, 0]"] ;
106 -> 107 ;
108 [label="gini = 0.0\nsamples = 1\nvalue = [0, 0, 1, 0, 0, 0, 0]"] ;
106 -> 108 ;
109 [label="X[6] <= 180.0\ngini = 0.5\nsamples = 2\nvalue = [0, 0, 1, 0, 0, 1, 0]"] ;
103 -> 109 ;
110 [label="gini = 0.0\nsamples = 1\nvalue = [0, 0, 1, 0, 0, 0, 0]"] ;
109 -> 110 ;
111 [label="gini = 0.0\nsamples = 1\nvalue = [0, 0, 0, 0, 0, 1, 0]"] ;
109 -> 111 ;
112 [label="gini = 0.0\nsamples = 1\nvalue = [0, 0, 1, 0, 0, 0, 0]"] ;
102 -> 112 ;
113 [label="gini = 0.0\nsamples = 1\nvalue = [0, 0, 1, 0, 0, 0, 0]"] ;
99 -> 113 ;
114 [label="X[18] <= 0.5\ngini = 0.673\nsamples = 37\nvalue = [0, 3, 17, 7, 0, 10, 0]"] ;
98 -> 114 ;
115 [label="X[5] <= 338.5\ngini = 0.648\nsamples = 33\nvalue = [0, 3, 17, 7, 0, 6, 0]"] ;
114 -> 115 ;
116 [label="X[9] <= 414.0\ngini = 0.612\nsamples = 7\nvalue = [0, 3, 1, 0, 0, 3, 0]"] ;
115 -> 116 ;
117 [label="gini = 0.0\nsamples = 2\nvalue = [0, 0, 0, 0, 0, 2, 0]"] ;
116 -> 117 ;
118 [label="X[0] <= 2131.5\ngini = 0.56\nsamples = 5\nvalue = [0, 3, 1, 0, 0, 1, 0]"] ;
116 -> 118 ;
119 [label="X[1] <= 341.0\ngini = 0.5\nsamples = 2\nvalue = [0, 0, 1, 0, 0, 1, 0]"] ;
118 -> 119 ;
120 [label="gini = 0.0\nsamples = 1\nvalue = [0, 0, 1, 0, 0, 0, 0]"] ;
119 -> 120 ;
121 [label="gini = 0.0\nsamples = 1\nvalue = [0, 0, 0, 0, 0, 1, 0]"] ;
119 -> 121 ;
122 [label="gini = 0.0\nsamples = 3\nvalue = [0, 3, 0, 0, 0, 0, 0]"] ;
118 -> 122 ;
123 [label="X[2] <= 15.5\ngini = 0.536\nsamples = 26\nvalue = [0, 0, 16, 7, 0, 3, 0]"] ;
115 -> 123 ;
124 [label="X[5] <= 810.5\ngini = 0.444\nsamples = 9\nvalue = [0, 0, 3, 6, 0, 0, 0]"] ;
123 -> 124 ;
125 [label="gini = 0.0\nsamples = 3\nvalue = [0, 0, 3, 0, 0, 0, 0]"] ;
124 -> 125 ;
126 [label="gini = 0.0\nsamples = 6\nvalue = [0, 0, 0, 6, 0, 0, 0]"] ;
124 -> 126 ;
127 [label="X[0] <= 2203.0\ngini = 0.381\nsamples = 17\nvalue = [0, 0, 13, 1, 0, 3, 0]"] ;
123 -> 127 ;
128 [label="X[9] <= 403.5\ngini = 0.611\nsamples = 6\nvalue = [0, 0, 2, 1, 0, 3, 0]"] ;
127 -> 128 ;
129 [label="gini = 0.0\nsamples = 3\nvalue = [0, 0, 0, 0, 0, 3, 0]"] ;
128 -> 129 ;
130 [label="X[0] <= 2083.5\ngini = 0.444\nsamples = 3\nvalue = [0, 0, 2, 1, 0, 0, 0]"] ;
128 -> 130 ;
131 [label="gini = 0.0\nsamples = 1\nvalue = [0, 0, 0, 1, 0, 0, 0]"] ;
130 -> 131 ;
132 [label="gini = 0.0\nsamples = 2\nvalue = [0, 0, 2, 0, 0, 0, 0]"] ;
130 -> 132 ;
133 [label="gini = 0.0\nsamples = 11\nvalue = [0, 0, 11, 0, 0, 0, 0]"] ;
127 -> 133 ;
134 [label="gini = 0.0\nsamples = 4\nvalue = [0, 0, 0, 0, 0, 4, 0]"] ;
114 -> 134 ;
135 [label="X[7] <= 250.5\ngini = 0.283\nsamples = 37\nvalue = [0, 0, 31, 4, 0, 2, 0]"] ;
97 -> 135 ;
136 [label="X[9] <= 157.5\ngini = 0.164\nsamples = 34\nvalue = [0, 0, 31, 1, 0, 2, 0]"] ;
135 -> 136 ;
137 [label="X[0] <= 2305.5\ngini = 0.444\nsamples = 3\nvalue = [0, 0, 1, 0, 0, 2, 0]"] ;
136 -> 137 ;
138 [label="gini = 0.0\nsamples = 2\nvalue = [0, 0, 0, 0, 0, 2, 0]"] ;
137 -> 138 ;
139 [label="gini = 0.0\nsamples = 1\nvalue = [0, 0, 1, 0, 0, 0, 0]"] ;
137 -> 139 ;
140 [label="X[0] <= 2351.0\ngini = 0.062\nsamples = 31\nvalue = [0, 0, 30, 1, 0, 0, 0]"] ;
136 -> 140 ;
141 [label="gini = 0.0\nsamples = 30\nvalue = [0, 0, 30, 0, 0, 0, 0]"] ;
140 -> 141 ;
142 [label="gini = 0.0\nsamples = 1\nvalue = [0, 0, 0, 1, 0, 0, 0]"] ;
140 -> 142 ;
143 [label="gini = 0.0\nsamples = 3\nvalue = [0, 0, 0, 3, 0, 0, 0]"] ;
135 -> 143 ;
144 [label="gini = 0.0\nsamples = 12\nvalue = [0, 0, 0, 12, 0, 0, 0]"] ;
42 -> 144 ;
145 [label="X[3] <= 186.0\ngini = 0.355\nsamples = 65\nvalue = [0, 0, 15, 0, 0, 50, 0]"] ;
41 -> 145 ;
146 [label="X[0] <= 2186.5\ngini = 0.238\nsamples = 58\nvalue = [0, 0, 8, 0, 0, 50, 0]"] ;
145 -> 146 ;
147 [label="gini = 0.0\nsamples = 3\nvalue = [0, 0, 3, 0, 0, 0, 0]"] ;
146 -> 147 ;
148 [label="X[8] <= 150.0\ngini = 0.165\nsamples = 55\nvalue = [0, 0, 5, 0, 0, 50, 0]"] ;
146 -> 148 ;
149 [label="X[7] <= 177.5\ngini = 0.444\nsamples = 3\nvalue = [0, 0, 2, 0, 0, 1, 0]"] ;
148 -> 149 ;
150 [label="gini = 0.0\nsamples = 1\nvalue = [0, 0, 0, 0, 0, 1, 0]"] ;
149 -> 150 ;
151 [label="gini = 0.0\nsamples = 2\nvalue = [0, 0, 2, 0, 0, 0, 0]"] ;
149 -> 151 ;
152 [label="X[3] <= 114.0\ngini = 0.109\nsamples = 52\nvalue = [0, 0, 3, 0, 0, 49, 0]"] ;
148 -> 152 ;
153 [label="gini = 0.0\nsamples = 37\nvalue = [0, 0, 0, 0, 0, 37, 0]"] ;
152 -> 153 ;
154 [label="X[7] <= 211.0\ngini = 0.32\nsamples = 15\nvalue = [0, 0, 3, 0, 0, 12, 0]"] ;
152 -> 154 ;
155 [label="X[9] <= 498.5\ngini = 0.48\nsamples = 5\nvalue = [0, 0, 3, 0, 0, 2, 0]"] ;
154 -> 155 ;
156 [label="gini = 0.0\nsamples = 3\nvalue = [0, 0, 3, 0, 0, 0, 0]"] ;
155 -> 156 ;
157 [label="gini = 0.0\nsamples = 2\nvalue = [0, 0, 0, 0, 0, 2, 0]"] ;
155 -> 157 ;
158 [label="gini = 0.0\nsamples = 10\nvalue = [0, 0, 0, 0, 0, 10, 0]"] ;
154 -> 158 ;
159 [label="gini = 0.0\nsamples = 7\nvalue = [0, 0, 7, 0, 0, 0, 0]"] ;
145 -> 159 ;
160 [label="X[9] <= 1089.5\ngini = 0.548\nsamples = 669\nvalue = [0, 1, 279, 38, 0, 351, 0]"] ;
40 -> 160 ;
161 [label="X[8] <= 218.5\ngini = 0.524\nsamples = 537\nvalue = [0, 1, 184, 32, 0, 320, 0]"] ;
160 -> 161 ;
162 [label="X[3] <= 406.0\ngini = 0.487\nsamples = 448\nvalue = [0, 1, 131, 24, 0, 292, 0]"] ;
161 -> 162 ;
163 [label="X[5] <= 1167.5\ngini = 0.455\nsamples = 427\nvalue = [0, 1, 120, 15, 0, 291, 0]"] ;
162 -> 163 ;
164 [label="X[9] <= 802.5\ngini = 0.38\nsamples = 303\nvalue = [0, 1, 67, 6, 0, 229, 0]"] ;
163 -> 164 ;
165 [label="X[7] <= 236.0\ngini = 0.499\nsamples = 152\nvalue = [0, 1, 52, 5, 0, 94, 0]"] ;
164 -> 165 ;
166 [label="X[3] <= 255.5\ngini = 0.447\nsamples = 139\nvalue = [0, 1, 45, 0, 0, 93, 0]"] ;
165 -> 166 ;
167 [label="X[1] <= 5.5\ngini = 0.386\nsamples = 113\nvalue = [0, 1, 28, 0, 0, 84, 0]"] ;
166 -> 167 ;
168 [label="X[0] <= 2023.0\ngini = 0.32\nsamples = 5\nvalue = [0, 0, 4, 0, 0, 1, 0]"] ;
167 -> 168 ;
169 [label="gini = 0.0\nsamples = 1\nvalue = [0, 0, 0, 0, 0, 1, 0]"] ;
168 -> 169 ;
170 [label="gini = 0.0\nsamples = 4\nvalue = [0, 0, 4, 0, 0, 0, 0]"] ;
168 -> 170 ;
171 [label="X[5] <= 172.5\ngini = 0.36\nsamples = 108\nvalue = [0, 1, 24, 0, 0, 83, 0]"] ;
167 -> 171 ;
172 [label="X[5] <= 122.0\ngini = 0.562\nsamples = 11\nvalue = [0, 1, 6, 0, 0, 4, 0]"] ;
171 -> 172 ;
173 [label="X[6] <= 188.5\ngini = 0.32\nsamples = 5\nvalue = [0, 1, 0, 0, 0, 4, 0]"] ;
172 -> 173 ;
174 [label="gini = 0.0\nsamples = 4\nvalue = [0, 0, 0, 0, 0, 4, 0]"] ;
173 -> 174 ;
175 [label="gini = 0.0\nsamples = 1\nvalue = [0, 1, 0, 0, 0, 0, 0]"] ;
173 -> 175 ;
176 [label="gini = 0.0\nsamples = 6\nvalue = [0, 0, 6, 0, 0, 0, 0]"] ;
172 -> 176 ;
177 [label="X[1] <= 24.0\ngini = 0.302\nsamples = 97\nvalue = [0, 0, 18, 0, 0, 79, 0]"] ;
171 -> 177 ;
178 [label="gini = 0.0\nsamples = 21\nvalue = [0, 0, 0, 0, 0, 21, 0]"] ;
177 -> 178 ;
179 [label="X[19] <= 0.5\ngini = 0.361\nsamples = 76\nvalue = [0, 0, 18, 0, 0, 58, 0]"] ;
177 -> 179 ;
180 [label="X[0] <= 2071.0\ngini = 0.33\nsamples = 72\nvalue = [0, 0, 15, 0, 0, 57, 0]"] ;
179 -> 180 ;
181 [label="gini = 0.0\nsamples = 14\nvalue = [0, 0, 0, 0, 0, 14, 0]"] ;
180 -> 181 ;
182 [label="X[14] <= 0.5\ngini = 0.383\nsamples = 58\nvalue = [0, 0, 15, 0, 0, 43, 0]"] ;
180 -> 182 ;
183 [label="X[1] <= 345.5\ngini = 0.357\nsamples = 56\nvalue = [0, 0, 13, 0, 0, 43, 0]"] ;
182 -> 183 ;
184 [label="X[0] <= 2264.5\ngini = 0.263\nsamples = 45\nvalue = [0, 0, 7, 0, 0, 38, 0]"] ;
183 -> 184 ;
185 [label="X[0] <= 2219.0\ngini = 0.375\nsamples = 28\nvalue = [0, 0, 7, 0, 0, 21, 0]"] ;
184 -> 185 ;
186 [label="X[9] <= 791.0\ngini = 0.311\nsamples = 26\nvalue = [0, 0, 5, 0, 0, 21, 0]"] ;
185 -> 186 ;
187 [label="X[1] <= 315.5\ngini = 0.269\nsamples = 25\nvalue = [0, 0, 4, 0, 0, 21, 0]"] ;
186 -> 187 ;
188 [label="gini = 0.0\nsamples = 10\nvalue = [0, 0, 0, 0, 0, 10, 0]"] ;
187 -> 188 ;
189 [label="X[7] <= 195.0\ngini = 0.391\nsamples = 15\nvalue = [0, 0, 4, 0, 0, 11, 0]"] ;
187 -> 189 ;
190 [label="gini = 0.0\nsamples = 6\nvalue = [0, 0, 0, 0, 0, 6, 0]"] ;
189 -> 190 ;
191 [label="X[5] <= 1036.5\ngini = 0.494\nsamples = 9\nvalue = [0, 0, 4, 0, 0, 5, 0]"] ;
189 -> 191 ;
192 [label="X[0] <= 2106.5\ngini = 0.32\nsamples = 5\nvalue = [0, 0, 4, 0, 0, 1, 0]"] ;
191 -> 192 ;
193 [label="gini = 0.0\nsamples = 1\nvalue = [0, 0, 0, 0, 0, 1, 0]"] ;
192 -> 193 ;
194 [label="gini = 0.0\nsamples = 4\nvalue = [0, 0, 4, 0, 0, 0, 0]"] ;
192 -> 194 ;
195 [label="gini = 0.0\nsamples = 4\nvalue = [0, 0, 0, 0, 0, 4, 0]"] ;
191 -> 195 ;
196 [label="gini = 0.0\nsamples = 1\nvalue = [0, 0, 1, 0, 0, 0, 0]"] ;
186 -> 196 ;
197 [label="gini = 0.0\nsamples = 2\nvalue = [0, 0, 2, 0, 0, 0, 0]"] ;
185 -> 197 ;
198 [label="gini = 0.0\nsamples = 17\nvalue = [0, 0, 0, 0, 0, 17, 0]"] ;
184 -> 198 ;
199 [label="X[6] <= 177.0\ngini = 0.496\nsamples = 11\nvalue = [0, 0, 6, 0, 0, 5, 0]"] ;
183 -> 199 ;
200 [label="X[5] <= 820.0\ngini = 0.408\nsamples = 7\nvalue = [0, 0, 2, 0, 0, 5, 0]"] ;
199 -> 200 ;
201 [label="gini = 0.0\nsamples = 5\nvalue = [0, 0, 0, 0, 0, 5, 0]"] ;
200 -> 201 ;
202 [label="gini = 0.0\nsamples = 2\nvalue = [0, 0, 2, 0, 0, 0, 0]"] ;
200 -> 202 ;
203 [label="gini = 0.0\nsamples = 4\nvalue = [0, 0, 4, 0, 0, 0, 0]"] ;
199 -> 203 ;
204 [label="gini = 0.0\nsamples = 2\nvalue = [0, 0, 2, 0, 0, 0, 0]"] ;
182 -> 204 ;
205 [label="X[1] <= 337.0\ngini = 0.375\nsamples = 4\nvalue = [0, 0, 3, 0, 0, 1, 0]"] ;
179 -> 205 ;
206 [label="gini = 0.0\nsamples = 3\nvalue = [0, 0, 3, 0, 0, 0, 0]"] ;
205 -> 206 ;
207 [label="gini = 0.0\nsamples = 1\nvalue = [0, 0, 0, 0, 0, 1, 0]"] ;
205 -> 207 ;
208 [label="X[6] <= 182.0\ngini = 0.453\nsamples = 26\nvalue = [0, 0, 17, 0, 0, 9, 0]"] ;
166 -> 208 ;
209 [label="X[4] <= -58.0\ngini = 0.124\nsamples = 15\nvalue = [0, 0, 14, 0, 0, 1, 0]"] ;
208 -> 209 ;
210 [label="gini = 0.0\nsamples = 1\nvalue = [0, 0, 0, 0, 0, 1, 0]"] ;
209 -> 210 ;
211 [label="gini = 0.0\nsamples = 14\nvalue = [0, 0, 14, 0, 0, 0, 0]"] ;
209 -> 211 ;
212 [label="X[3] <= 290.0\ngini = 0.397\nsamples = 11\nvalue = [0, 0, 3, 0, 0, 8, 0]"] ;
208 -> 212 ;
213 [label="gini = 0.0\nsamples = 5\nvalue = [0, 0, 0, 0, 0, 5, 0]"] ;
212 -> 213 ;
214 [label="X[2] <= 14.5\ngini = 0.5\nsamples = 6\nvalue = [0, 0, 3, 0, 0, 3, 0]"] ;
212 -> 214 ;
215 [label="gini = 0.0\nsamples = 3\nvalue = [0, 0, 0, 0, 0, 3, 0]"] ;
214 -> 215 ;
216 [label="gini = 0.0\nsamples = 3\nvalue = [0, 0, 3, 0, 0, 0, 0]"] ;
214 -> 216 ;
217 [label="X[5] <= 520.0\ngini = 0.556\nsamples = 13\nvalue = [0, 0, 7, 5, 0, 1, 0]"] ;
165 -> 217 ;
218 [label="X[2] <= 28.5\ngini = 0.219\nsamples = 8\nvalue = [0, 0, 7, 0, 0, 1, 0]"] ;
217 -> 218 ;
219 [label="gini = 0.0\nsamples = 7\nvalue = [0, 0, 7, 0, 0, 0, 0]"] ;
218 -> 219 ;
220 [label="gini = 0.0\nsamples = 1\nvalue = [0, 0, 0, 0, 0, 1, 0]"] ;
218 -> 220 ;
221 [label="gini = 0.0\nsamples = 5\nvalue = [0, 0, 0, 5, 0, 0, 0]"] ;
217 -> 221 ;
222 [label="X[19] <= 0.5\ngini = 0.191\nsamples = 151\nvalue = [0, 0, 15, 1, 0, 135, 0]"] ;
164 -> 222 ;
223 [label="X[5] <= 406.0\ngini = 0.162\nsamples = 147\nvalue = [0, 0, 12, 1, 0, 134, 0]"] ;
222 -> 223 ;
224 [label="X[0] <= 2115.5\ngini = 0.447\nsamples = 32\nvalue = [0, 0, 9, 1, 0, 22, 0]"] ;
223 -> 224 ;
225 [label="X[2] <= 18.5\ngini = 0.087\nsamples = 22\nvalue = [0, 0, 1, 0, 0, 21, 0]"] ;
224 -> 225 ;
226 [label="gini = 0.0\nsamples = 1\nvalue = [0, 0, 1, 0, 0, 0, 0]"] ;
225 -> 226 ;
227 [label="gini = 0.0\nsamples = 21\nvalue = [0, 0, 0, 0, 0, 21, 0]"] ;
225 -> 227 ;
228 [label="X[1] <= 115.0\ngini = 0.34\nsamples = 10\nvalue = [0, 0, 8, 1, 0, 1, 0]"] ;
224 -> 228 ;
229 [label="gini = 0.0\nsamples = 1\nvalue = [0, 0, 0, 0, 0, 1, 0]"] ;
228 -> 229 ;
230 [label="X[4] <= 1.5\ngini = 0.198\nsamples = 9\nvalue = [0, 0, 8, 1, 0, 0, 0]"] ;
228 -> 230 ;
231 [label="gini = 0.0\nsamples = 1\nvalue = [0, 0, 0, 1, 0, 0, 0]"] ;
230 -> 231 ;
232 [label="gini = 0.0\nsamples = 8\nvalue = [0, 0, 8, 0, 0, 0, 0]"] ;
230 -> 232 ;
233 [label="X[1] <= 358.5\ngini = 0.051\nsamples = 115\nvalue = [0, 0, 3, 0, 0, 112, 0]"] ;
223 -> 233 ;
234 [label="X[5] <= 1152.0\ngini = 0.034\nsamples = 114\nvalue = [0, 0, 2, 0, 0, 112, 0]"] ;
233 -> 234 ;
235 [label="X[1] <= 353.5\ngini = 0.018\nsamples = 112\nvalue = [0, 0, 1, 0, 0, 111, 0]"] ;
234 -> 235 ;
236 [label="gini = 0.0\nsamples = 109\nvalue = [0, 0, 0, 0, 0, 109, 0]"] ;
235 -> 236 ;
237 [label="X[4] <= 136.0\ngini = 0.444\nsamples = 3\nvalue = [0, 0, 1, 0, 0, 2, 0]"] ;
235 -> 237 ;
238 [label="gini = 0.0\nsamples = 2\nvalue = [0, 0, 0, 0, 0, 2, 0]"] ;
237 -> 238 ;
239 [label="gini = 0.0\nsamples = 1\nvalue = [0, 0, 1, 0, 0, 0, 0]"] ;
237 -> 239 ;
240 [label="X[6] <= 169.5\ngini = 0.5\nsamples = 2\nvalue = [0, 0, 1, 0, 0, 1, 0]"] ;
234 -> 240 ;
241 [label="gini = 0.0\nsamples = 1\nvalue = [0, 0, 1, 0, 0, 0, 0]"] ;
240 -> 241 ;
242 [label="gini = 0.0\nsamples = 1\nvalue = [0, 0, 0, 0, 0, 1, 0]"] ;
240 -> 242 ;
243 [label="gini = 0.0\nsamples = 1\nvalue = [0, 0, 1, 0, 0, 0, 0]"] ;
233 -> 243 ;
244 [label="X[2] <= 20.5\ngini = 0.375\nsamples = 4\nvalue = [0, 0, 3, 0, 0, 1, 0]"] ;
222 -> 244 ;
245 [label="gini = 0.0\nsamples = 3\nvalue = [0, 0, 3, 0, 0, 0, 0]"] ;
244 -> 245 ;
246 [label="gini = 0.0\nsamples = 1\nvalue = [0, 0, 0, 0, 0, 1, 0]"] ;
244 -> 246 ;
247 [label="X[2] <= 24.5\ngini = 0.562\nsamples = 124\nvalue = [0, 0, 53, 9, 0, 62, 0]"] ;
163 -> 247 ;
248 [label="X[9] <= 875.0\ngini = 0.449\nsamples = 75\nvalue = [0, 0, 16, 6, 0, 53, 0]"] ;
247 -> 248 ;
249 [label="X[3] <= 300.5\ngini = 0.271\nsamples = 52\nvalue = [0, 0, 3, 5, 0, 44, 0]"] ;
248 -> 249 ;
250 [label="X[5] <= 1185.0\ngini = 0.084\nsamples = 46\nvalue = [0, 0, 1, 1, 0, 44, 0]"] ;
249 -> 250 ;
251 [label="gini = 0.0\nsamples = 1\nvalue = [0, 0, 1, 0, 0, 0, 0]"] ;
250 -> 251 ;
252 [label="X[0] <= 2199.0\ngini = 0.043\nsamples = 45\nvalue = [0, 0, 0, 1, 0, 44, 0]"] ;
250 -> 252 ;
253 [label="X[5] <= 1213.0\ngini = 0.5\nsamples = 2\nvalue = [0, 0, 0, 1, 0, 1, 0]"] ;
252 -> 253 ;
254 [label="gini = 0.0\nsamples = 1\nvalue = [0, 0, 0, 1, 0, 0, 0]"] ;
253 -> 254 ;
255 [label="gini = 0.0\nsamples = 1\nvalue = [0, 0, 0, 0, 0, 1, 0]"] ;
253 -> 255 ;
256 [label="gini = 0.0\nsamples = 43\nvalue = [0, 0, 0, 0, 0, 43, 0]"] ;
252 -> 256 ;
257 [label="X[7] <= 226.0\ngini = 0.444\nsamples = 6\nvalue = [0, 0, 2, 4, 0, 0, 0]"] ;
249 -> 257 ;
258 [label="gini = 0.0\nsamples = 2\nvalue = [0, 0, 2, 0, 0, 0, 0]"] ;
257 -> 258 ;
259 [label="gini = 0.0\nsamples = 4\nvalue = [0, 0, 0, 4, 0, 0, 0]"] ;
257 -> 259 ;
260 [label="X[8] <= 188.0\ngini = 0.526\nsamples = 23\nvalue = [0, 0, 13, 1, 0, 9, 0]"] ;
248 -> 260 ;
261 [label="X[2] <= 14.5\ngini = 0.165\nsamples = 11\nvalue = [0, 0, 10, 1, 0, 0, 0]"] ;
260 -> 261 ;
262 [label="X[4] <= -8.0\ngini = 0.5\nsamples = 2\nvalue = [0, 0, 1, 1, 0, 0, 0]"] ;
261 -> 262 ;
263 [label="gini = 0.0\nsamples = 1\nvalue = [0, 0, 1, 0, 0, 0, 0]"] ;
262 -> 263 ;
264 [label="gini = 0.0\nsamples = 1\nvalue = [0, 0, 0, 1, 0, 0, 0]"] ;
262 -> 264 ;
265 [label="gini = 0.0\nsamples = 9\nvalue = [0, 0, 9, 0, 0, 0, 0]"] ;
261 -> 265 ;
266 [label="X[6] <= 155.5\ngini = 0.375\nsamples = 12\nvalue = [0, 0, 3, 0, 0, 9, 0]"] ;
260 -> 266 ;
267 [label="gini = 0.0\nsamples = 2\nvalue = [0, 0, 2, 0, 0, 0, 0]"] ;
266 -> 267 ;
268 [label="X[9] <= 1007.0\ngini = 0.18\nsamples = 10\nvalue = [0, 0, 1, 0, 0, 9, 0]"] ;
266 -> 268 ;
269 [label="gini = 0.0\nsamples = 9\nvalue = [0, 0, 0, 0, 0, 9, 0]"] ;
268 -> 269 ;
270 [label="gini = 0.0\nsamples = 1\nvalue = [0, 0, 1, 0, 0, 0, 0]"] ;
268 -> 270 ;
271 [label="X[23] <= 0.5\ngini = 0.392\nsamples = 49\nvalue = [0, 0, 37, 3, 0, 9, 0]"] ;
247 -> 271 ;
272 [label="X[7] <= 251.0\ngini = 0.375\nsamples = 4\nvalue = [0, 0, 0, 1, 0, 3, 0]"] ;
271 -> 272 ;
273 [label="gini = 0.0\nsamples = 3\nvalue = [0, 0, 0, 0, 0, 3, 0]"] ;
272 -> 273 ;
274 [label="gini = 0.0\nsamples = 1\nvalue = [0, 0, 0, 1, 0, 0, 0]"] ;
272 -> 274 ;
275 [label="X[5] <= 1632.0\ngini = 0.304\nsamples = 45\nvalue = [0, 0, 37, 2, 0, 6, 0]"] ;
271 -> 275 ;
276 [label="X[9] <= 854.0\ngini = 0.24\nsamples = 43\nvalue = [0, 0, 37, 0, 0, 6, 0]"] ;
275 -> 276 ;
277 [label="X[8] <= 196.5\ngini = 0.397\nsamples = 22\nvalue = [0, 0, 16, 0, 0, 6, 0]"] ;
276 -> 277 ;
278 [label="X[1] <= 346.5\ngini = 0.133\nsamples = 14\nvalue = [0, 0, 13, 0, 0, 1, 0]"] ;
277 -> 278 ;
279 [label="gini = 0.0\nsamples = 12\nvalue = [0, 0, 12, 0, 0, 0, 0]"] ;
278 -> 279 ;
280 [label="X[2] <= 29.5\ngini = 0.5\nsamples = 2\nvalue = [0, 0, 1, 0, 0, 1, 0]"] ;
278 -> 280 ;
281 [label="gini = 0.0\nsamples = 1\nvalue = [0, 0, 0, 0, 0, 1, 0]"] ;
280 -> 281 ;
282 [label="gini = 0.0\nsamples = 1\nvalue = [0, 0, 1, 0, 0, 0, 0]"] ;
280 -> 282 ;
283 [label="X[9] <= 680.5\ngini = 0.469\nsamples = 8\nvalue = [0, 0, 3, 0, 0, 5, 0]"] ;
277 -> 283 ;
284 [label="X[7] <= 193.0\ngini = 0.375\nsamples = 4\nvalue = [0, 0, 3, 0, 0, 1, 0]"] ;
283 -> 284 ;
285 [label="gini = 0.0\nsamples = 1\nvalue = [0, 0, 0, 0, 0, 1, 0]"] ;
284 -> 285 ;
286 [label="gini = 0.0\nsamples = 3\nvalue = [0, 0, 3, 0, 0, 0, 0]"] ;
284 -> 286 ;
287 [label="gini = 0.0\nsamples = 4\nvalue = [0, 0, 0, 0, 0, 4, 0]"] ;
283 -> 287 ;
288 [label="gini = 0.0\nsamples = 21\nvalue = [0, 0, 21, 0, 0, 0, 0]"] ;
276 -> 288 ;
289 [label="gini = 0.0\nsamples = 2\nvalue = [0, 0, 0, 2, 0, 0, 0]"] ;
275 -> 289 ;
290 [label="X[7] <= 248.0\ngini = 0.54\nsamples = 21\nvalue = [0, 0, 11, 9, 0, 1, 0]"] ;
162 -> 290 ;
291 [label="X[0] <= 2145.5\ngini = 0.18\nsamples = 10\nvalue = [0, 0, 9, 0, 0, 1, 0]"] ;
290 -> 291 ;
292 [label="gini = 0.0\nsamples = 1\nvalue = [0, 0, 0, 0, 0, 1, 0]"] ;
291 -> 292 ;
293 [label="gini = 0.0\nsamples = 9\nvalue = [0, 0, 9, 0, 0, 0, 0]"] ;
291 -> 293 ;
294 [label="X[14] <= 0.5\ngini = 0.298\nsamples = 11\nvalue = [0, 0, 2, 9, 0, 0, 0]"] ;
290 -> 294 ;
295 [label="gini = 0.0\nsamples = 9\nvalue = [0, 0, 0, 9, 0, 0, 0]"] ;
294 -> 295 ;
296 [label="gini = 0.0\nsamples = 2\nvalue = [0, 0, 2, 0, 0, 0, 0]"] ;
294 -> 296 ;
297 [label="X[9] <= 701.0\ngini = 0.538\nsamples = 89\nvalue = [0, 0, 53, 8, 0, 28, 0]"] ;
161 -> 297 ;
298 [label="X[5] <= 1452.0\ngini = 0.174\nsamples = 32\nvalue = [0, 0, 29, 1, 0, 2, 0]"] ;
297 -> 298 ;
299 [label="X[27] <= 0.5\ngini = 0.064\nsamples = 30\nvalue = [0, 0, 29, 1, 0, 0, 0]"] ;
298 -> 299 ;
300 [label="gini = 0.0\nsamples = 29\nvalue = [0, 0, 29, 0, 0, 0, 0]"] ;
299 -> 300 ;
301 [label="gini = 0.0\nsamples = 1\nvalue = [0, 0, 0, 1, 0, 0, 0]"] ;
299 -> 301 ;
302 [label="gini = 0.0\nsamples = 2\nvalue = [0, 0, 0, 0, 0, 2, 0]"] ;
298 -> 302 ;
303 [label="X[19] <= 0.5\ngini = 0.6\nsamples = 57\nvalue = [0, 0, 24, 7, 0, 26, 0]"] ;
297 -> 303 ;
304 [label="X[2] <= 32.5\ngini = 0.519\nsamples = 50\nvalue = [0, 0, 24, 1, 0, 25, 0]"] ;
303 -> 304 ;
305 [label="X[3] <= 386.0\ngini = 0.469\nsamples = 35\nvalue = [0, 0, 11, 1, 0, 23, 0]"] ;
304 -> 305 ;
306 [label="X[8] <= 220.0\ngini = 0.349\nsamples = 28\nvalue = [0, 0, 5, 1, 0, 22, 0]"] ;
305 -> 306 ;
307 [label="X[3] <= 162.5\ngini = 0.375\nsamples = 4\nvalue = [0, 0, 3, 0, 0, 1, 0]"] ;
306 -> 307 ;
308 [label="gini = 0.0\nsamples = 3\nvalue = [0, 0, 3, 0, 0, 0, 0]"] ;
307 -> 308 ;
309 [label="gini = 0.0\nsamples = 1\nvalue = [0, 0, 0, 0, 0, 1, 0]"] ;
307 -> 309 ;
310 [label="X[1] <= 298.5\ngini = 0.226\nsamples = 24\nvalue = [0, 0, 2, 1, 0, 21, 0]"] ;
306 -> 310 ;
311 [label="X[3] <= 377.5\ngini = 0.163\nsamples = 23\nvalue = [0, 0, 1, 1, 0, 21, 0]"] ;
310 -> 311 ;
312 [label="X[5] <= 1472.0\ngini = 0.091\nsamples = 21\nvalue = [0, 0, 1, 0, 0, 20, 0]"] ;
311 -> 312 ;
313 [label="gini = 0.0\nsamples = 18\nvalue = [0, 0, 0, 0, 0, 18, 0]"] ;
312 -> 313 ;
314 [label="X[3] <= 188.0\ngini = 0.444\nsamples = 3\nvalue = [0, 0, 1, 0, 0, 2, 0]"] ;
312 -> 314 ;
315 [label="gini = 0.0\nsamples = 1\nvalue = [0, 0, 1, 0, 0, 0, 0]"] ;
314 -> 315 ;
316 [label="gini = 0.0\nsamples = 2\nvalue = [0, 0, 0, 0, 0, 2, 0]"] ;
314 -> 316 ;
317 [label="X[3] <= 380.5\ngini = 0.5\nsamples = 2\nvalue = [0, 0, 0, 1, 0, 1, 0]"] ;
311 -> 317 ;
318 [label="gini = 0.0\nsamples = 1\nvalue = [0, 0, 0, 1, 0, 0, 0]"] ;
317 -> 318 ;
319 [label="gini = 0.0\nsamples = 1\nvalue = [0, 0, 0, 0, 0, 1, 0]"] ;
317 -> 319 ;
320 [label="gini = 0.0\nsamples = 1\nvalue = [0, 0, 1, 0, 0, 0, 0]"] ;
310 -> 320 ;
321 [label="X[0] <= 2102.5\ngini = 0.245\nsamples = 7\nvalue = [0, 0, 6, 0, 0, 1, 0]"] ;
305 -> 321 ;
322 [label="gini = 0.0\nsamples = 1\nvalue = [0, 0, 0, 0, 0, 1, 0]"] ;
321 -> 322 ;
323 [label="gini = 0.0\nsamples = 6\nvalue = [0, 0, 6, 0, 0, 0, 0]"] ;
321 -> 323 ;
324 [label="X[9] <= 1053.5\ngini = 0.231\nsamples = 15\nvalue = [0, 0, 13, 0, 0, 2, 0]"] ;
304 -> 324 ;
325 [label="gini = 0.0\nsamples = 12\nvalue = [0, 0, 12, 0, 0, 0, 0]"] ;
324 -> 325 ;
326 [label="X[8] <= 227.0\ngini = 0.444\nsamples = 3\nvalue = [0, 0, 1, 0, 0, 2, 0]"] ;
324 -> 326 ;
327 [label="gini = 0.0\nsamples = 1\nvalue = [0, 0, 1, 0, 0, 0, 0]"] ;
326 -> 327 ;
328 [label="gini = 0.0\nsamples = 2\nvalue = [0, 0, 0, 0, 0, 2, 0]"] ;
326 -> 328 ;
329 [label="X[7] <= 226.0\ngini = 0.245\nsamples = 7\nvalue = [0, 0, 0, 6, 0, 1, 0]"] ;
303 -> 329 ;
330 [label="gini = 0.0\nsamples = 1\nvalue = [0, 0, 0, 0, 0, 1, 0]"] ;
329 -> 330 ;
331 [label="gini = 0.0\nsamples = 6\nvalue = [0, 0, 0, 6, 0, 0, 0]"] ;
329 -> 331 ;
332 [label="X[2] <= 25.5\ngini = 0.425\nsamples = 132\nvalue = [0, 0, 95, 6, 0, 31, 0]"] ;
160 -> 332 ;
333 [label="X[3] <= 366.5\ngini = 0.568\nsamples = 63\nvalue = [0, 0, 31, 5, 0, 27, 0]"] ;
332 -> 333 ;
334 [label="X[0] <= 2260.0\ngini = 0.562\nsamples = 48\nvalue = [0, 0, 16, 5, 0, 27, 0]"] ;
333 -> 334 ;
335 [label="X[4] <= 12.0\ngini = 0.415\nsamples = 17\nvalue = [0, 0, 12, 5, 0, 0, 0]"] ;
334 -> 335 ;
336 [label="gini = 0.0\nsamples = 5\nvalue = [0, 0, 0, 5, 0, 0, 0]"] ;
335 -> 336 ;
337 [label="gini = 0.0\nsamples = 12\nvalue = [0, 0, 12, 0, 0, 0, 0]"] ;
335 -> 337 ;
338 [label="X[6] <= 192.0\ngini = 0.225\nsamples = 31\nvalue = [0, 0, 4, 0, 0, 27, 0]"] ;
334 -> 338 ;
339 [label="X[5] <= 564.0\ngini = 0.128\nsamples = 29\nvalue = [0, 0, 2, 0, 0, 27, 0]"] ;
338 -> 339 ;
340 [label="gini = 0.0\nsamples = 1\nvalue = [0, 0, 1, 0, 0, 0, 0]"] ;
339 -> 340 ;
341 [label="X[9] <= 1210.0\ngini = 0.069\nsamples = 28\nvalue = [0, 0, 1, 0, 0, 27, 0]"] ;
339 -> 341 ;
342 [label="X[5] <= 995.5\ngini = 0.375\nsamples = 4\nvalue = [0, 0, 1, 0, 0, 3, 0]"] ;
341 -> 342 ;
343 [label="gini = 0.0\nsamples = 3\nvalue = [0, 0, 0, 0, 0, 3, 0]"] ;
342 -> 343 ;
344 [label="gini = 0.0\nsamples = 1\nvalue = [0, 0, 1, 0, 0, 0, 0]"] ;
342 -> 344 ;
345 [label="gini = 0.0\nsamples = 24\nvalue = [0, 0, 0, 0, 0, 24, 0]"] ;
341 -> 345 ;
346 [label="gini = 0.0\nsamples = 2\nvalue = [0, 0, 2, 0, 0, 0, 0]"] ;
338 -> 346 ;
347 [label="gini = 0.0\nsamples = 15\nvalue = [0, 0, 15, 0, 0, 0, 0]"] ;
333 -> 347 ;
348 [label="X[3] <= 36.0\ngini = 0.136\nsamples = 69\nvalue = [0, 0, 64, 1, 0, 4, 0]"] ;
332 -> 348 ;
349 [label="X[9] <= 1250.0\ngini = 0.5\nsamples = 2\nvalue = [0, 0, 0, 1, 0, 1, 0]"] ;
348 -> 349 ;
350 [label="gini = 0.0\nsamples = 1\nvalue = [0, 0, 0, 0, 0, 1, 0]"] ;
349 -> 350 ;
351 [label="gini = 0.0\nsamples = 1\nvalue = [0, 0, 0, 1, 0, 0, 0]"] ;
349 -> 351 ;
352 [label="X[1] <= 346.0\ngini = 0.086\nsamples = 67\nvalue = [0, 0, 64, 0, 0, 3, 0]"] ;
348 -> 352 ;
353 [label="X[0] <= 2349.0\ngini = 0.032\nsamples = 61\nvalue = [0, 0, 60, 0, 0, 1, 0]"] ;
352 -> 353 ;
354 [label="gini = 0.0\nsamples = 56\nvalue = [0, 0, 56, 0, 0, 0, 0]"] ;
353 -> 354 ;
355 [label="X[5] <= 1011.0\ngini = 0.32\nsamples = 5\nvalue = [0, 0, 4, 0, 0, 1, 0]"] ;
353 -> 355 ;
356 [label="gini = 0.0\nsamples = 4\nvalue = [0, 0, 4, 0, 0, 0, 0]"] ;
355 -> 356 ;
357 [label="gini = 0.0\nsamples = 1\nvalue = [0, 0, 0, 0, 0, 1, 0]"] ;
355 -> 357 ;
358 [label="X[3] <= 157.0\ngini = 0.444\nsamples = 6\nvalue = [0, 0, 4, 0, 0, 2, 0]"] ;
352 -> 358 ;
359 [label="gini = 0.0\nsamples = 2\nvalue = [0, 0, 0, 0, 0, 2, 0]"] ;
358 -> 359 ;
360 [label="gini = 0.0\nsamples = 4\nvalue = [0, 0, 4, 0, 0, 0, 0]"] ;
358 -> 360 ;
361 [label="X[5] <= 571.0\ngini = 0.38\nsamples = 62\nvalue = [0, 0, 13, 47, 0, 2, 0]"] ;
39 -> 361 ;
362 [label="gini = 0.0\nsamples = 9\nvalue = [0, 0, 9, 0, 0, 0, 0]"] ;
361 -> 362 ;
363 [label="X[0] <= 2233.5\ngini = 0.206\nsamples = 53\nvalue = [0, 0, 4, 47, 0, 2, 0]"] ;
361 -> 363 ;
364 [label="X[0] <= 2109.5\ngini = 0.145\nsamples = 51\nvalue = [0, 0, 4, 47, 0, 0, 0]"] ;
363 -> 364 ;
365 [label="X[5] <= 1101.5\ngini = 0.36\nsamples = 17\nvalue = [0, 0, 4, 13, 0, 0, 0]"] ;
364 -> 365 ;
366 [label="X[5] <= 662.0\ngini = 0.142\nsamples = 13\nvalue = [0, 0, 1, 12, 0, 0, 0]"] ;
365 -> 366 ;
367 [label="X[9] <= 533.5\ngini = 0.5\nsamples = 2\nvalue = [0, 0, 1, 1, 0, 0, 0]"] ;
366 -> 367 ;
368 [label="gini = 0.0\nsamples = 1\nvalue = [0, 0, 0, 1, 0, 0, 0]"] ;
367 -> 368 ;
369 [label="gini = 0.0\nsamples = 1\nvalue = [0, 0, 1, 0, 0, 0, 0]"] ;
367 -> 369 ;
370 [label="gini = 0.0\nsamples = 11\nvalue = [0, 0, 0, 11, 0, 0, 0]"] ;
366 -> 370 ;
371 [label="X[2] <= 13.5\ngini = 0.375\nsamples = 4\nvalue = [0, 0, 3, 1, 0, 0, 0]"] ;
365 -> 371 ;
372 [label="gini = 0.0\nsamples = 1\nvalue = [0, 0, 0, 1, 0, 0, 0]"] ;
371 -> 372 ;
373 [label="gini = 0.0\nsamples = 3\nvalue = [0, 0, 3, 0, 0, 0, 0]"] ;
371 -> 373 ;
374 [label="gini = 0.0\nsamples = 34\nvalue = [0, 0, 0, 34, 0, 0, 0]"] ;
364 -> 374 ;
375 [label="gini = 0.0\nsamples = 2\nvalue = [0, 0, 0, 0, 0, 2, 0]"] ;
363 -> 375 ;
376 [label="X[3] <= 15.0\ngini = 0.421\nsamples = 2442\nvalue = [0, 1, 386, 1800, 0, 255, 0]"] ;
4 -> 376 ;
377 [label="X[13] <= 0.5\ngini = 0.102\nsamples = 750\nvalue = [0, 0, 16, 710, 0, 24, 0]"] ;
376 -> 377 ;
378 [label="gini = 0.0\nsamples = 9\nvalue = [0, 0, 0, 0, 0, 9, 0]"] ;
377 -> 378 ;
379 [label="X[5] <= 92.5\ngini = 0.081\nsamples = 741\nvalue = [0, 0, 16, 710, 0, 15, 0]"] ;
377 -> 379 ;
380 [label="X[1] <= 27.0\ngini = 0.449\nsamples = 7\nvalue = [0, 0, 5, 1, 0, 1, 0]"] ;
379 -> 380 ;
381 [label="X[1] <= 19.5\ngini = 0.5\nsamples = 2\nvalue = [0, 0, 0, 1, 0, 1, 0]"] ;
380 -> 381 ;
382 [label="gini = 0.0\nsamples = 1\nvalue = [0, 0, 0, 0, 0, 1, 0]"] ;
381 -> 382 ;
383 [label="gini = 0.0\nsamples = 1\nvalue = [0, 0, 0, 1, 0, 0, 0]"] ;
381 -> 383 ;
384 [label="gini = 0.0\nsamples = 5\nvalue = [0, 0, 5, 0, 0, 0, 0]"] ;
380 -> 384 ;
385 [label="X[0] <= 2322.0\ngini = 0.066\nsamples = 734\nvalue = [0, 0, 11, 709, 0, 14, 0]"] ;
379 -> 385 ;
386 [label="X[8] <= 54.0\ngini = 0.045\nsamples = 660\nvalue = [0, 0, 6, 645, 0, 9, 0]"] ;
385 -> 386 ;
387 [label="X[0] <= 2234.5\ngini = 0.32\nsamples = 10\nvalue = [0, 0, 0, 8, 0, 2, 0]"] ;
386 -> 387 ;
388 [label="gini = 0.0\nsamples = 7\nvalue = [0, 0, 0, 7, 0, 0, 0]"] ;
387 -> 388 ;
389 [label="X[7] <= 188.0\ngini = 0.444\nsamples = 3\nvalue = [0, 0, 0, 1, 0, 2, 0]"] ;
387 -> 389 ;
390 [label="gini = 0.0\nsamples = 2\nvalue = [0, 0, 0, 0, 0, 2, 0]"] ;
389 -> 390 ;
391 [label="gini = 0.0\nsamples = 1\nvalue = [0, 0, 0, 1, 0, 0, 0]"] ;
389 -> 391 ;
392 [label="X[6] <= 202.5\ngini = 0.039\nsamples = 650\nvalue = [0, 0, 6, 637, 0, 7, 0]"] ;
386 -> 392 ;
393 [label="X[23] <= 0.5\ngini = 0.16\nsamples = 58\nvalue = [0, 0, 1, 53, 0, 4, 0]"] ;
392 -> 393 ;
394 [label="X[0] <= 2283.5\ngini = 0.103\nsamples = 55\nvalue = [0, 0, 0, 52, 0, 3, 0]"] ;
393 -> 394 ;
395 [label="X[5] <= 1571.5\ngini = 0.038\nsamples = 51\nvalue = [0, 0, 0, 50, 0, 1, 0]"] ;
394 -> 395 ;
396 [label="gini = 0.0\nsamples = 47\nvalue = [0, 0, 0, 47, 0, 0, 0]"] ;
395 -> 396 ;
397 [label="X[5] <= 1583.5\ngini = 0.375\nsamples = 4\nvalue = [0, 0, 0, 3, 0, 1, 0]"] ;
395 -> 397 ;
398 [label="gini = 0.0\nsamples = 1\nvalue = [0, 0, 0, 0, 0, 1, 0]"] ;
397 -> 398 ;
399 [label="gini = 0.0\nsamples = 3\nvalue = [0, 0, 0, 3, 0, 0, 0]"] ;
397 -> 399 ;
400 [label="X[5] <= 999.0\ngini = 0.5\nsamples = 4\nvalue = [0, 0, 0, 2, 0, 2, 0]"] ;
394 -> 400 ;
401 [label="gini = 0.0\nsamples = 2\nvalue = [0, 0, 0, 2, 0, 0, 0]"] ;
400 -> 401 ;
402 [label="gini = 0.0\nsamples = 2\nvalue = [0, 0, 0, 0, 0, 2, 0]"] ;
400 -> 402 ;
403 [label="X[8] <= 145.5\ngini = 0.667\nsamples = 3\nvalue = [0, 0, 1, 1, 0, 1, 0]"] ;
393 -> 403 ;
404 [label="gini = 0.0\nsamples = 1\nvalue = [0, 0, 1, 0, 0, 0, 0]"] ;
403 -> 404 ;
405 [label="X[8] <= 158.5\ngini = 0.5\nsamples = 2\nvalue = [0, 0, 0, 1, 0, 1, 0]"] ;
403 -> 405 ;
406 [label="gini = 0.0\nsamples = 1\nvalue = [0, 0, 0, 0, 0, 1, 0]"] ;
405 -> 406 ;
407 [label="gini = 0.0\nsamples = 1\nvalue = [0, 0, 0, 1, 0, 0, 0]"] ;
405 -> 407 ;
408 [label="X[5] <= 1535.0\ngini = 0.027\nsamples = 592\nvalue = [0, 0, 5, 584, 0, 3, 0]"] ;
392 -> 408 ;
409 [label="X[1] <= 348.5\ngini = 0.021\nsamples = 570\nvalue = [0, 0, 3, 564, 0, 3, 0]"] ;
408 -> 409 ;
410 [label="X[0] <= 2252.5\ngini = 0.018\nsamples = 558\nvalue = [0, 0, 2, 553, 0, 3, 0]"] ;
409 -> 410 ;
411 [label="X[6] <= 204.5\ngini = 0.005\nsamples = 419\nvalue = [0, 0, 1, 418, 0, 0, 0]"] ;
410 -> 411 ;
412 [label="X[5] <= 441.0\ngini = 0.124\nsamples = 15\nvalue = [0, 0, 1, 14, 0, 0, 0]"] ;
411 -> 412 ;
413 [label="gini = 0.0\nsamples = 1\nvalue = [0, 0, 1, 0, 0, 0, 0]"] ;
412 -> 413 ;
414 [label="gini = 0.0\nsamples = 14\nvalue = [0, 0, 0, 14, 0, 0, 0]"] ;
412 -> 414 ;
415 [label="gini = 0.0\nsamples = 404\nvalue = [0, 0, 0, 404, 0, 0, 0]"] ;
411 -> 415 ;
416 [label="X[2] <= 24.0\ngini = 0.056\nsamples = 139\nvalue = [0, 0, 1, 135, 0, 3, 0]"] ;
410 -> 416 ;
417 [label="X[27] <= 0.5\ngini = 0.043\nsamples = 138\nvalue = [0, 0, 0, 135, 0, 3, 0]"] ;
416 -> 417 ;
418 [label="X[19] <= 0.5\ngini = 0.016\nsamples = 128\nvalue = [0, 0, 0, 127, 0, 1, 0]"] ;
417 -> 418 ;
419 [label="gini = 0.0\nsamples = 119\nvalue = [0, 0, 0, 119, 0, 0, 0]"] ;
418 -> 419 ;
420 [label="X[7] <= 210.0\ngini = 0.198\nsamples = 9\nvalue = [0, 0, 0, 8, 0, 1, 0]"] ;
418 -> 420 ;
421 [label="gini = 0.0\nsamples = 1\nvalue = [0, 0, 0, 0, 0, 1, 0]"] ;
420 -> 421 ;
422 [label="gini = 0.0\nsamples = 8\nvalue = [0, 0, 0, 8, 0, 0, 0]"] ;
420 -> 422 ;
423 [label="X[7] <= 223.5\ngini = 0.32\nsamples = 10\nvalue = [0, 0, 0, 8, 0, 2, 0]"] ;
417 -> 423 ;
424 [label="X[7] <= 220.0\ngini = 0.198\nsamples = 9\nvalue = [0, 0, 0, 8, 0, 1, 0]"] ;
423 -> 424 ;
425 [label="gini = 0.0\nsamples = 6\nvalue = [0, 0, 0, 6, 0, 0, 0]"] ;
424 -> 425 ;
426 [label="X[5] <= 188.0\ngini = 0.444\nsamples = 3\nvalue = [0, 0, 0, 2, 0, 1, 0]"] ;
424 -> 426 ;
427 [label="gini = 0.0\nsamples = 1\nvalue = [0, 0, 0, 0, 0, 1, 0]"] ;
426 -> 427 ;
428 [label="gini = 0.0\nsamples = 2\nvalue = [0, 0, 0, 2, 0, 0, 0]"] ;
426 -> 428 ;
429 [label="gini = 0.0\nsamples = 1\nvalue = [0, 0, 0, 0, 0, 1, 0]"] ;
423 -> 429 ;
430 [label="gini = 0.0\nsamples = 1\nvalue = [0, 0, 1, 0, 0, 0, 0]"] ;
416 -> 430 ;
431 [label="X[1] <= 349.5\ngini = 0.153\nsamples = 12\nvalue = [0, 0, 1, 11, 0, 0, 0]"] ;
409 -> 431 ;
432 [label="gini = 0.0\nsamples = 1\nvalue = [0, 0, 1, 0, 0, 0, 0]"] ;
431 -> 432 ;
433 [label="gini = 0.0\nsamples = 11\nvalue = [0, 0, 0, 11, 0, 0, 0]"] ;
431 -> 433 ;
434 [label="X[5] <= 1539.0\ngini = 0.165\nsamples = 22\nvalue = [0, 0, 2, 20, 0, 0, 0]"] ;
408 -> 434 ;
435 [label="gini = 0.0\nsamples = 1\nvalue = [0, 0, 1, 0, 0, 0, 0]"] ;
434 -> 435 ;
436 [label="X[0] <= 2273.5\ngini = 0.091\nsamples = 21\nvalue = [0, 0, 1, 20, 0, 0, 0]"] ;
434 -> 436 ;
437 [label="gini = 0.0\nsamples = 20\nvalue = [0, 0, 0, 20, 0, 0, 0]"] ;
436 -> 437 ;
438 [label="gini = 0.0\nsamples = 1\nvalue = [0, 0, 1, 0, 0, 0, 0]"] ;
436 -> 438 ;
439 [label="X[30] <= 0.5\ngini = 0.243\nsamples = 74\nvalue = [0, 0, 5, 64, 0, 5, 0]"] ;
385 -> 439 ;
440 [label="X[5] <= 1449.5\ngini = 0.203\nsamples = 72\nvalue = [0, 0, 3, 64, 0, 5, 0]"] ;
439 -> 440 ;
441 [label="X[7] <= 187.0\ngini = 0.163\nsamples = 69\nvalue = [0, 0, 3, 63, 0, 3, 0]"] ;
440 -> 441 ;
442 [label="gini = 0.0\nsamples = 1\nvalue = [0, 0, 1, 0, 0, 0, 0]"] ;
441 -> 442 ;
443 [label="X[29] <= 0.5\ngini = 0.139\nsamples = 68\nvalue = [0, 0, 2, 63, 0, 3, 0]"] ;
441 -> 443 ;
444 [label="X[7] <= 212.0\ngini = 0.09\nsamples = 64\nvalue = [0, 0, 1, 61, 0, 2, 0]"] ;
443 -> 444 ;
445 [label="X[9] <= 1379.5\ngini = 0.46\nsamples = 10\nvalue = [0, 0, 1, 7, 0, 2, 0]"] ;
444 -> 445 ;
446 [label="X[8] <= 118.5\ngini = 0.219\nsamples = 8\nvalue = [0, 0, 1, 7, 0, 0, 0]"] ;
445 -> 446 ;
447 [label="gini = 0.0\nsamples = 7\nvalue = [0, 0, 0, 7, 0, 0, 0]"] ;
446 -> 447 ;
448 [label="gini = 0.0\nsamples = 1\nvalue = [0, 0, 1, 0, 0, 0, 0]"] ;
446 -> 448 ;
449 [label="gini = 0.0\nsamples = 2\nvalue = [0, 0, 0, 0, 0, 2, 0]"] ;
445 -> 449 ;
450 [label="gini = 0.0\nsamples = 54\nvalue = [0, 0, 0, 54, 0, 0, 0]"] ;
444 -> 450 ;
451 [label="X[8] <= 150.5\ngini = 0.625\nsamples = 4\nvalue = [0, 0, 1, 2, 0, 1, 0]"] ;
443 -> 451 ;
452 [label="gini = 0.0\nsamples = 2\nvalue = [0, 0, 0, 2, 0, 0, 0]"] ;
451 -> 452 ;
453 [label="X[6] <= 206.0\ngini = 0.5\nsamples = 2\nvalue = [0, 0, 1, 0, 0, 1, 0]"] ;
451 -> 453 ;
454 [label="gini = 0.0\nsamples = 1\nvalue = [0, 0, 0, 0, 0, 1, 0]"] ;
453 -> 454 ;
455 [label="gini = 0.0\nsamples = 1\nvalue = [0, 0, 1, 0, 0, 0, 0]"] ;
453 -> 455 ;
456 [label="X[7] <= 236.0\ngini = 0.444\nsamples = 3\nvalue = [0, 0, 0, 1, 0, 2, 0]"] ;
440 -> 456 ;
457 [label="gini = 0.0\nsamples = 2\nvalue = [0, 0, 0, 0, 0, 2, 0]"] ;
456 -> 457 ;
458 [label="gini = 0.0\nsamples = 1\nvalue = [0, 0, 0, 1, 0, 0, 0]"] ;
456 -> 458 ;
459 [label="gini = 0.0\nsamples = 2\nvalue = [0, 0, 2, 0, 0, 0, 0]"] ;
439 -> 459 ;
460 [label="X[16] <= 0.5\ngini = 0.519\nsamples = 1692\nvalue = [0, 1, 370, 1090, 0, 231, 0]"] ;
376 -> 460 ;
461 [label="X[5] <= 825.0\ngini = 0.65\nsamples = 940\nvalue = [0, 1, 309, 403, 0, 227, 0]"] ;
460 -> 461 ;
462 [label="X[3] <= 51.0\ngini = 0.626\nsamples = 446\nvalue = [0, 1, 220, 93, 0, 132, 0]"] ;
461 -> 462 ;
463 [label="X[0] <= 2320.0\ngini = 0.613\nsamples = 111\nvalue = [0, 1, 31, 58, 0, 21, 0]"] ;
462 -> 463 ;
464 [label="X[2] <= 31.0\ngini = 0.554\nsamples = 95\nvalue = [0, 0, 24, 57, 0, 14, 0]"] ;
463 -> 464 ;
465 [label="X[0] <= 1993.0\ngini = 0.517\nsamples = 88\nvalue = [0, 0, 18, 57, 0, 13, 0]"] ;
464 -> 465 ;
466 [label="gini = 0.0\nsamples = 5\nvalue = [0, 0, 0, 0, 0, 5, 0]"] ;
465 -> 466 ;
467 [label="X[0] <= 2066.5\ngini = 0.472\nsamples = 83\nvalue = [0, 0, 18, 57, 0, 8, 0]"] ;
465 -> 467 ;
468 [label="X[7] <= 168.5\ngini = 0.202\nsamples = 36\nvalue = [0, 0, 3, 32, 0, 1, 0]"] ;
467 -> 468 ;
469 [label="gini = 0.0\nsamples = 1\nvalue = [0, 0, 0, 0, 0, 1, 0]"] ;
468 -> 469 ;
470 [label="X[6] <= 198.5\ngini = 0.157\nsamples = 35\nvalue = [0, 0, 3, 32, 0, 0, 0]"] ;
468 -> 470 ;
471 [label="gini = 0.0\nsamples = 1\nvalue = [0, 0, 1, 0, 0, 0, 0]"] ;
470 -> 471 ;
472 [label="X[7] <= 246.0\ngini = 0.111\nsamples = 34\nvalue = [0, 0, 2, 32, 0, 0, 0]"] ;
470 -> 472 ;
473 [label="X[19] <= 0.5\ngini = 0.059\nsamples = 33\nvalue = [0, 0, 1, 32, 0, 0, 0]"] ;
472 -> 473 ;
474 [label="gini = 0.0\nsamples = 28\nvalue = [0, 0, 0, 28, 0, 0, 0]"] ;
473 -> 474 ;
475 [label="X[8] <= 87.0\ngini = 0.32\nsamples = 5\nvalue = [0, 0, 1, 4, 0, 0, 0]"] ;
473 -> 475 ;
476 [label="gini = 0.0\nsamples = 1\nvalue = [0, 0, 1, 0, 0, 0, 0]"] ;
475 -> 476 ;
477 [label="gini = 0.0\nsamples = 4\nvalue = [0, 0, 0, 4, 0, 0, 0]"] ;
475 -> 477 ;
478 [label="gini = 0.0\nsamples = 1\nvalue = [0, 0, 1, 0, 0, 0, 0]"] ;
472 -> 478 ;
479 [label="X[17] <= 0.5\ngini = 0.593\nsamples = 47\nvalue = [0, 0, 15, 25, 0, 7, 0]"] ;
467 -> 479 ;
480 [label="X[0] <= 2287.0\ngini = 0.644\nsamples = 29\nvalue = [0, 0, 13, 9, 0, 7, 0]"] ;
479 -> 480 ;
481 [label="X[7] <= 193.5\ngini = 0.553\nsamples = 21\nvalue = [0, 0, 12, 2, 0, 7, 0]"] ;
480 -> 481 ;
482 [label="X[8] <= 43.0\ngini = 0.406\nsamples = 8\nvalue = [0, 0, 1, 1, 0, 6, 0]"] ;
481 -> 482 ;
483 [label="gini = 0.0\nsamples = 1\nvalue = [0, 0, 0, 1, 0, 0, 0]"] ;
482 -> 483 ;
484 [label="X[7] <= 168.0\ngini = 0.245\nsamples = 7\nvalue = [0, 0, 1, 0, 0, 6, 0]"] ;
482 -> 484 ;
485 [label="gini = 0.0\nsamples = 1\nvalue = [0, 0, 1, 0, 0, 0, 0]"] ;
484 -> 485 ;
486 [label="gini = 0.0\nsamples = 6\nvalue = [0, 0, 0, 0, 0, 6, 0]"] ;
484 -> 486 ;
487 [label="X[4] <= -3.5\ngini = 0.272\nsamples = 13\nvalue = [0, 0, 11, 1, 0, 1, 0]"] ;
481 -> 487 ;
488 [label="gini = 0.0\nsamples = 1\nvalue = [0, 0, 0, 0, 0, 1, 0]"] ;
487 -> 488 ;
489 [label="X[7] <= 239.0\ngini = 0.153\nsamples = 12\nvalue = [0, 0, 11, 1, 0, 0, 0]"] ;
487 -> 489 ;
490 [label="gini = 0.0\nsamples = 11\nvalue = [0, 0, 11, 0, 0, 0, 0]"] ;
489 -> 490 ;
491 [label="gini = 0.0\nsamples = 1\nvalue = [0, 0, 0, 1, 0, 0, 0]"] ;
489 -> 491 ;
492 [label="X[7] <= 206.5\ngini = 0.219\nsamples = 8\nvalue = [0, 0, 1, 7, 0, 0, 0]"] ;
480 -> 492 ;
493 [label="gini = 0.0\nsamples = 1\nvalue = [0, 0, 1, 0, 0, 0, 0]"] ;
492 -> 493 ;
494 [label="gini = 0.0\nsamples = 7\nvalue = [0, 0, 0, 7, 0, 0, 0]"] ;
492 -> 494 ;
495 [label="X[6] <= 216.5\ngini = 0.198\nsamples = 18\nvalue = [0, 0, 2, 16, 0, 0, 0]"] ;
479 -> 495 ;
496 [label="X[4] <= 5.0\ngini = 0.444\nsamples = 3\nvalue = [0, 0, 2, 1, 0, 0, 0]"] ;
495 -> 496 ;
497 [label="gini = 0.0\nsamples = 2\nvalue = [0, 0, 2, 0, 0, 0, 0]"] ;
496 -> 497 ;
498 [label="gini = 0.0\nsamples = 1\nvalue = [0, 0, 0, 1, 0, 0, 0]"] ;
496 -> 498 ;
499 [label="gini = 0.0\nsamples = 15\nvalue = [0, 0, 0, 15, 0, 0, 0]"] ;
495 -> 499 ;
500 [label="X[5] <= 438.5\ngini = 0.245\nsamples = 7\nvalue = [0, 0, 6, 0, 0, 1, 0]"] ;
464 -> 500 ;
501 [label="gini = 0.0\nsamples = 6\nvalue = [0, 0, 6, 0, 0, 0, 0]"] ;
500 -> 501 ;
502 [label="gini = 0.0\nsamples = 1\nvalue = [0, 0, 0, 0, 0, 1, 0]"] ;
500 -> 502 ;
503 [label="X[8] <= 85.0\ngini = 0.609\nsamples = 16\nvalue = [0, 1, 7, 1, 0, 7, 0]"] ;
463 -> 503 ;
504 [label="gini = 0.0\nsamples = 4\nvalue = [0, 0, 0, 0, 0, 4, 0]"] ;
503 -> 504 ;
505 [label="X[3] <= 36.0\ngini = 0.583\nsamples = 12\nvalue = [0, 1, 7, 1, 0, 3, 0]"] ;
503 -> 505 ;
506 [label="X[5] <= 530.5\ngini = 0.37\nsamples = 9\nvalue = [0, 0, 7, 1, 0, 1, 0]"] ;
505 -> 506 ;
507 [label="X[9] <= 1353.5\ngini = 0.219\nsamples = 8\nvalue = [0, 0, 7, 0, 0, 1, 0]"] ;
506 -> 507 ;
508 [label="gini = 0.0\nsamples = 7\nvalue = [0, 0, 7, 0, 0, 0, 0]"] ;
507 -> 508 ;
509 [label="gini = 0.0\nsamples = 1\nvalue = [0, 0, 0, 0, 0, 1, 0]"] ;
507 -> 509 ;
510 [label="gini = 0.0\nsamples = 1\nvalue = [0, 0, 0, 1, 0, 0, 0]"] ;
506 -> 510 ;
511 [label="X[6] <= 219.5\ngini = 0.444\nsamples = 3\nvalue = [0, 1, 0, 0, 0, 2, 0]"] ;
505 -> 511 ;
512 [label="gini = 0.0\nsamples = 2\nvalue = [0, 0, 0, 0, 0, 2, 0]"] ;
511 -> 512 ;
513 [label="gini = 0.0\nsamples = 1\nvalue = [0, 1, 0, 0, 0, 0, 0]"] ;
511 -> 513 ;
514 [label="X[1] <= 58.5\ngini = 0.561\nsamples = 335\nvalue = [0, 0, 189, 35, 0, 111, 0]"] ;
462 -> 514 ;
515 [label="X[0] <= 1988.0\ngini = 0.53\nsamples = 138\nvalue = [0, 0, 56, 6, 0, 76, 0]"] ;
514 -> 515 ;
516 [label="gini = 0.0\nsamples = 20\nvalue = [0, 0, 0, 0, 0, 20, 0]"] ;
515 -> 516 ;
517 [label="X[23] <= 0.5\ngini = 0.547\nsamples = 118\nvalue = [0, 0, 56, 6, 0, 56, 0]"] ;
515 -> 517 ;
518 [label="X[15] <= 0.5\ngini = 0.436\nsamples = 56\nvalue = [0, 0, 38, 0, 0, 18, 0]"] ;
517 -> 518 ;
519 [label="X[9] <= 778.0\ngini = 0.314\nsamples = 41\nvalue = [0, 0, 33, 0, 0, 8, 0]"] ;
518 -> 519 ;
520 [label="X[17] <= 0.5\ngini = 0.202\nsamples = 35\nvalue = [0, 0, 31, 0, 0, 4, 0]"] ;
519 -> 520 ;
521 [label="X[6] <= 227.0\ngini = 0.064\nsamples = 30\nvalue = [0, 0, 29, 0, 0, 1, 0]"] ;
520 -> 521 ;
522 [label="gini = 0.0\nsamples = 29\nvalue = [0, 0, 29, 0, 0, 0, 0]"] ;
521 -> 522 ;
523 [label="gini = 0.0\nsamples = 1\nvalue = [0, 0, 0, 0, 0, 1, 0]"] ;
521 -> 523 ;
524 [label="X[4] <= 63.0\ngini = 0.48\nsamples = 5\nvalue = [0, 0, 2, 0, 0, 3, 0]"] ;
520 -> 524 ;
525 [label="gini = 0.0\nsamples = 2\nvalue = [0, 0, 2, 0, 0, 0, 0]"] ;
524 -> 525 ;
526 [label="gini = 0.0\nsamples = 3\nvalue = [0, 0, 0, 0, 0, 3, 0]"] ;
524 -> 526 ;
527 [label="X[9] <= 962.0\ngini = 0.444\nsamples = 6\nvalue = [0, 0, 2, 0, 0, 4, 0]"] ;
519 -> 527 ;
528 [label="gini = 0.0\nsamples = 4\nvalue = [0, 0, 0, 0, 0, 4, 0]"] ;
527 -> 528 ;
529 [label="gini = 0.0\nsamples = 2\nvalue = [0, 0, 2, 0, 0, 0, 0]"] ;
527 -> 529 ;
530 [label="X[0] <= 2273.0\ngini = 0.444\nsamples = 15\nvalue = [0, 0, 5, 0, 0, 10, 0]"] ;
518 -> 530 ;
531 [label="gini = 0.0\nsamples = 10\nvalue = [0, 0, 0, 0, 0, 10, 0]"] ;
530 -> 531 ;
532 [label="gini = 0.0\nsamples = 5\nvalue = [0, 0, 5, 0, 0, 0, 0]"] ;
530 -> 532 ;
533 [label="X[9] <= 832.5\ngini = 0.531\nsamples = 62\nvalue = [0, 0, 18, 6, 0, 38, 0]"] ;
517 -> 533 ;
534 [label="X[9] <= 584.0\ngini = 0.577\nsamples = 52\nvalue = [0, 0, 18, 6, 0, 28, 0]"] ;
533 -> 534 ;
535 [label="X[8] <= 64.5\ngini = 0.491\nsamples = 37\nvalue = [0, 0, 6, 6, 0, 25, 0]"] ;
534 -> 535 ;
536 [label="X[6] <= 214.5\ngini = 0.667\nsamples = 12\nvalue = [0, 0, 4, 4, 0, 4, 0]"] ;
535 -> 536 ;
537 [label="X[8] <= 52.0\ngini = 0.5\nsamples = 6\nvalue = [0, 0, 4, 1, 0, 1, 0]"] ;
536 -> 537 ;
538 [label="gini = 0.0\nsamples = 1\nvalue = [0, 0, 0, 0, 0, 1, 0]"] ;
537 -> 538 ;
539 [label="X[3] <= 340.5\ngini = 0.32\nsamples = 5\nvalue = [0, 0, 4, 1, 0, 0, 0]"] ;
537 -> 539 ;
540 [label="gini = 0.0\nsamples = 4\nvalue = [0, 0, 4, 0, 0, 0, 0]"] ;
539 -> 540 ;
541 [label="gini = 0.0\nsamples = 1\nvalue = [0, 0, 0, 1, 0, 0, 0]"] ;
539 -> 541 ;
542 [label="X[7] <= 160.5\ngini = 0.5\nsamples = 6\nvalue = [0, 0, 0, 3, 0, 3, 0]"] ;
536 -> 542 ;
543 [label="gini = 0.0\nsamples = 2\nvalue = [0, 0, 0, 0, 0, 2, 0]"] ;
542 -> 543 ;
544 [label="X[3] <= 285.0\ngini = 0.375\nsamples = 4\nvalue = [0, 0, 0, 3, 0, 1, 0]"] ;
542 -> 544 ;
545 [label="gini = 0.0\nsamples = 3\nvalue = [0, 0, 0, 3, 0, 0, 0]"] ;
544 -> 545 ;
546 [label="gini = 0.0\nsamples = 1\nvalue = [0, 0, 0, 0, 0, 1, 0]"] ;
544 -> 546 ;
547 [label="X[0] <= 2296.5\ngini = 0.282\nsamples = 25\nvalue = [0, 0, 2, 2, 0, 21, 0]"] ;
535 -> 547 ;
548 [label="X[6] <= 227.5\ngini = 0.163\nsamples = 23\nvalue = [0, 0, 1, 1, 0, 21, 0]"] ;
547 -> 548 ;
549 [label="X[3] <= 76.0\ngini = 0.087\nsamples = 22\nvalue = [0, 0, 0, 1, 0, 21, 0]"] ;
548 -> 549 ;
550 [label="X[2] <= 23.0\ngini = 0.5\nsamples = 2\nvalue = [0, 0, 0, 1, 0, 1, 0]"] ;
549 -> 550 ;
551 [label="gini = 0.0\nsamples = 1\nvalue = [0, 0, 0, 1, 0, 0, 0]"] ;
550 -> 551 ;
552 [label="gini = 0.0\nsamples = 1\nvalue = [0, 0, 0, 0, 0, 1, 0]"] ;
550 -> 552 ;
553 [label="gini = 0.0\nsamples = 20\nvalue = [0, 0, 0, 0, 0, 20, 0]"] ;
549 -> 553 ;
554 [label="gini = 0.0\nsamples = 1\nvalue = [0, 0, 1, 0, 0, 0, 0]"] ;
548 -> 554 ;
555 [label="X[3] <= 287.5\ngini = 0.5\nsamples = 2\nvalue = [0, 0, 1, 1, 0, 0, 0]"] ;
547 -> 555 ;
556 [label="gini = 0.0\nsamples = 1\nvalue = [0, 0, 1, 0, 0, 0, 0]"] ;
555 -> 556 ;
557 [label="gini = 0.0\nsamples = 1\nvalue = [0, 0, 0, 1, 0, 0, 0]"] ;
555 -> 557 ;
558 [label="X[4] <= 6.5\ngini = 0.32\nsamples = 15\nvalue = [0, 0, 12, 0, 0, 3, 0]"] ;
534 -> 558 ;
559 [label="gini = 0.0\nsamples = 2\nvalue = [0, 0, 0, 0, 0, 2, 0]"] ;
558 -> 559 ;
560 [label="X[5] <= 605.5\ngini = 0.142\nsamples = 13\nvalue = [0, 0, 12, 0, 0, 1, 0]"] ;
558 -> 560 ;
561 [label="gini = 0.0\nsamples = 11\nvalue = [0, 0, 11, 0, 0, 0, 0]"] ;
560 -> 561 ;
562 [label="X[7] <= 184.5\ngini = 0.5\nsamples = 2\nvalue = [0, 0, 1, 0, 0, 1, 0]"] ;
560 -> 562 ;
563 [label="gini = 0.0\nsamples = 1\nvalue = [0, 0, 1, 0, 0, 0, 0]"] ;
562 -> 563 ;
564 [label="gini = 0.0\nsamples = 1\nvalue = [0, 0, 0, 0, 0, 1, 0]"] ;
562 -> 564 ;
565 [label="gini = 0.0\nsamples = 10\nvalue = [0, 0, 0, 0, 0, 10, 0]"] ;
533 -> 565 ;
566 [label="X[9] <= 872.5\ngini = 0.491\nsamples = 197\nvalue = [0, 0, 133, 29, 0, 35, 0]"] ;
514 -> 566 ;
567 [label="X[23] <= 0.5\ngini = 0.357\nsamples = 160\nvalue = [0, 0, 126, 17, 0, 17, 0]"] ;
566 -> 567 ;
568 [label="X[1] <= 92.5\ngini = 0.168\nsamples = 130\nvalue = [0, 0, 118, 0, 0, 12, 0]"] ;
567 -> 568 ;
569 [label="X[9] <= 773.5\ngini = 0.353\nsamples = 48\nvalue = [0, 0, 37, 0, 0, 11, 0]"] ;
568 -> 569 ;
570 [label="X[9] <= 287.0\ngini = 0.292\nsamples = 45\nvalue = [0, 0, 37, 0, 0, 8, 0]"] ;
569 -> 570 ;
571 [label="X[0] <= 2092.5\ngini = 0.32\nsamples = 5\nvalue = [0, 0, 1, 0, 0, 4, 0]"] ;
570 -> 571 ;
572 [label="gini = 0.0\nsamples = 1\nvalue = [0, 0, 1, 0, 0, 0, 0]"] ;
571 -> 572 ;
573 [label="gini = 0.0\nsamples = 4\nvalue = [0, 0, 0, 0, 0, 4, 0]"] ;
571 -> 573 ;
574 [label="X[3] <= 63.5\ngini = 0.18\nsamples = 40\nvalue = [0, 0, 36, 0, 0, 4, 0]"] ;
570 -> 574 ;
575 [label="gini = 0.0\nsamples = 2\nvalue = [0, 0, 0, 0, 0, 2, 0]"] ;
574 -> 575 ;
576 [label="X[6] <= 246.5\ngini = 0.1\nsamples = 38\nvalue = [0, 0, 36, 0, 0, 2, 0]"] ;
574 -> 576 ;
577 [label="X[17] <= 0.5\ngini = 0.054\nsamples = 36\nvalue = [0, 0, 35, 0, 0, 1, 0]"] ;
576 -> 577 ;
578 [label="gini = 0.0\nsamples = 30\nvalue = [0, 0, 30, 0, 0, 0, 0]"] ;
577 -> 578 ;
579 [label="X[0] <= 2246.5\ngini = 0.278\nsamples = 6\nvalue = [0, 0, 5, 0, 0, 1, 0]"] ;
577 -> 579 ;
580 [label="gini = 0.0\nsamples = 1\nvalue = [0, 0, 0, 0, 0, 1, 0]"] ;
579 -> 580 ;
581 [label="gini = 0.0\nsamples = 5\nvalue = [0, 0, 5, 0, 0, 0, 0]"] ;
579 -> 581 ;
582 [label="X[8] <= 37.0\ngini = 0.5\nsamples = 2\nvalue = [0, 0, 1, 0, 0, 1, 0]"] ;
576 -> 582 ;
583 [label="gini = 0.0\nsamples = 1\nvalue = [0, 0, 1, 0, 0, 0, 0]"] ;
582 -> 583 ;
584 [label="gini = 0.0\nsamples = 1\nvalue = [0, 0, 0, 0, 0, 1, 0]"] ;
582 -> 584 ;
585 [label="gini = 0.0\nsamples = 3\nvalue = [0, 0, 0, 0, 0, 3, 0]"] ;
569 -> 585 ;
586 [label="X[9] <= 186.0\ngini = 0.024\nsamples = 82\nvalue = [0, 0, 81, 0, 0, 1, 0]"] ;
568 -> 586 ;
587 [label="X[9] <= 178.5\ngini = 0.32\nsamples = 5\nvalue = [0, 0, 4, 0, 0, 1, 0]"] ;
586 -> 587 ;
588 [label="gini = 0.0\nsamples = 4\nvalue = [0, 0, 4, 0, 0, 0, 0]"] ;
587 -> 588 ;
589 [label="gini = 0.0\nsamples = 1\nvalue = [0, 0, 0, 0, 0, 1, 0]"] ;
587 -> 589 ;
590 [label="gini = 0.0\nsamples = 77\nvalue = [0, 0, 77, 0, 0, 0, 0]"] ;
586 -> 590 ;
591 [label="X[9] <= 438.5\ngini = 0.58\nsamples = 30\nvalue = [0, 0, 8, 17, 0, 5, 0]"] ;
567 -> 591 ;
592 [label="X[7] <= 248.5\ngini = 0.105\nsamples = 18\nvalue = [0, 0, 1, 17, 0, 0, 0]"] ;
591 -> 592 ;
593 [label="gini = 0.0\nsamples = 17\nvalue = [0, 0, 0, 17, 0, 0, 0]"] ;
592 -> 593 ;
594 [label="gini = 0.0\nsamples = 1\nvalue = [0, 0, 1, 0, 0, 0, 0]"] ;
592 -> 594 ;
595 [label="X[6] <= 237.0\ngini = 0.486\nsamples = 12\nvalue = [0, 0, 7, 0, 0, 5, 0]"] ;
591 -> 595 ;
596 [label="gini = 0.0\nsamples = 7\nvalue = [0, 0, 7, 0, 0, 0, 0]"] ;
595 -> 596 ;
597 [label="gini = 0.0\nsamples = 5\nvalue = [0, 0, 0, 0, 0, 5, 0]"] ;
595 -> 597 ;
598 [label="X[9] <= 1531.5\ngini = 0.622\nsamples = 37\nvalue = [0, 0, 7, 12, 0, 18, 0]"] ;
566 -> 598 ;
599 [label="X[5] <= 255.5\ngini = 0.447\nsamples = 26\nvalue = [0, 0, 7, 1, 0, 18, 0]"] ;
598 -> 599 ;
600 [label="gini = 0.0\nsamples = 4\nvalue = [0, 0, 4, 0, 0, 0, 0]"] ;
599 -> 600 ;
601 [label="X[9] <= 1470.0\ngini = 0.31\nsamples = 22\nvalue = [0, 0, 3, 1, 0, 18, 0]"] ;
599 -> 601 ;
602 [label="X[3] <= 63.5\ngini = 0.185\nsamples = 20\nvalue = [0, 0, 1, 1, 0, 18, 0]"] ;
601 -> 602 ;
603 [label="X[5] <= 401.0\ngini = 0.5\nsamples = 2\nvalue = [0, 0, 0, 1, 0, 1, 0]"] ;
602 -> 603 ;
604 [label="gini = 0.0\nsamples = 1\nvalue = [0, 0, 0, 0, 0, 1, 0]"] ;
603 -> 604 ;
605 [label="gini = 0.0\nsamples = 1\nvalue = [0, 0, 0, 1, 0, 0, 0]"] ;
603 -> 605 ;
606 [label="X[15] <= 0.5\ngini = 0.105\nsamples = 18\nvalue = [0, 0, 1, 0, 0, 17, 0]"] ;
602 -> 606 ;
607 [label="gini = 0.0\nsamples = 16\nvalue = [0, 0, 0, 0, 0, 16, 0]"] ;
606 -> 607 ;
608 [label="X[9] <= 974.5\ngini = 0.5\nsamples = 2\nvalue = [0, 0, 1, 0, 0, 1, 0]"] ;
606 -> 608 ;
609 [label="gini = 0.0\nsamples = 1\nvalue = [0, 0, 1, 0, 0, 0, 0]"] ;
608 -> 609 ;
610 [label="gini = 0.0\nsamples = 1\nvalue = [0, 0, 0, 0, 0, 1, 0]"] ;
608 -> 610 ;
611 [label="gini = 0.0\nsamples = 2\nvalue = [0, 0, 2, 0, 0, 0, 0]"] ;
601 -> 611 ;
612 [label="gini = 0.0\nsamples = 11\nvalue = [0, 0, 0, 11, 0, 0, 0]"] ;
598 -> 612 ;
613 [label="X[0] <= 2191.5\ngini = 0.537\nsamples = 494\nvalue = [0, 0, 89, 310, 0, 95, 0]"] ;
461 -> 613 ;
614 [label="X[7] <= 173.5\ngini = 0.135\nsamples = 126\nvalue = [0, 0, 5, 117, 0, 4, 0]"] ;
613 -> 614 ;
615 [label="X[4] <= 17.5\ngini = 0.32\nsamples = 5\nvalue = [0, 0, 4, 1, 0, 0, 0]"] ;
614 -> 615 ;
616 [label="gini = 0.0\nsamples = 1\nvalue = [0, 0, 0, 1, 0, 0, 0]"] ;
615 -> 616 ;
617 [label="gini = 0.0\nsamples = 4\nvalue = [0, 0, 4, 0, 0, 0, 0]"] ;
615 -> 617 ;
618 [label="X[1] <= 2.0\ngini = 0.08\nsamples = 121\nvalue = [0, 0, 1, 116, 0, 4, 0]"] ;
614 -> 618 ;
619 [label="gini = 0.0\nsamples = 1\nvalue = [0, 0, 0, 0, 0, 1, 0]"] ;
618 -> 619 ;
620 [label="X[6] <= 253.5\ngini = 0.065\nsamples = 120\nvalue = [0, 0, 1, 116, 0, 3, 0]"] ;
618 -> 620 ;
621 [label="X[23] <= 0.5\ngini = 0.049\nsamples = 119\nvalue = [0, 0, 1, 116, 0, 2, 0]"] ;
620 -> 621 ;
622 [label="gini = 0.0\nsamples = 108\nvalue = [0, 0, 0, 108, 0, 0, 0]"] ;
621 -> 622 ;
623 [label="X[5] <= 1234.5\ngini = 0.43\nsamples = 11\nvalue = [0, 0, 1, 8, 0, 2, 0]"] ;
621 -> 623 ;
624 [label="gini = 0.0\nsamples = 8\nvalue = [0, 0, 0, 8, 0, 0, 0]"] ;
623 -> 624 ;
625 [label="X[4] <= 19.0\ngini = 0.444\nsamples = 3\nvalue = [0, 0, 1, 0, 0, 2, 0]"] ;
623 -> 625 ;
626 [label="gini = 0.0\nsamples = 2\nvalue = [0, 0, 0, 0, 0, 2, 0]"] ;
625 -> 626 ;
627 [label="gini = 0.0\nsamples = 1\nvalue = [0, 0, 1, 0, 0, 0, 0]"] ;
625 -> 627 ;
628 [label="gini = 0.0\nsamples = 1\nvalue = [0, 0, 0, 0, 0, 1, 0]"] ;
620 -> 628 ;
629 [label="X[3] <= 296.0\ngini = 0.612\nsamples = 368\nvalue = [0, 0, 84, 193, 0, 91, 0]"] ;
613 -> 629 ;
630 [label="X[19] <= 0.5\ngini = 0.662\nsamples = 229\nvalue = [0, 0, 71, 69, 0, 89, 0]"] ;
629 -> 630 ;
631 [label="X[3] <= 36.0\ngini = 0.602\nsamples = 159\nvalue = [0, 0, 34, 39, 0, 86, 0]"] ;
630 -> 631 ;
632 [label="X[7] <= 223.5\ngini = 0.591\nsamples = 54\nvalue = [0, 0, 8, 29, 0, 17, 0]"] ;
631 -> 632 ;
633 [label="X[4] <= 11.0\ngini = 0.631\nsamples = 30\nvalue = [0, 0, 6, 10, 0, 14, 0]"] ;
632 -> 633 ;
634 [label="X[9] <= 525.0\ngini = 0.472\nsamples = 21\nvalue = [0, 0, 0, 8, 0, 13, 0]"] ;
633 -> 634 ;
635 [label="gini = 0.0\nsamples = 7\nvalue = [0, 0, 0, 0, 0, 7, 0]"] ;
634 -> 635 ;
636 [label="X[0] <= 2308.0\ngini = 0.49\nsamples = 14\nvalue = [0, 0, 0, 8, 0, 6, 0]"] ;
634 -> 636 ;
637 [label="X[7] <= 209.5\ngini = 0.397\nsamples = 11\nvalue = [0, 0, 0, 8, 0, 3, 0]"] ;
636 -> 637 ;
638 [label="gini = 0.0\nsamples = 5\nvalue = [0, 0, 0, 5, 0, 0, 0]"] ;
637 -> 638 ;
639 [label="X[0] <= 2236.5\ngini = 0.5\nsamples = 6\nvalue = [0, 0, 0, 3, 0, 3, 0]"] ;
637 -> 639 ;
640 [label="gini = 0.0\nsamples = 2\nvalue = [0, 0, 0, 0, 0, 2, 0]"] ;
639 -> 640 ;
641 [label="X[6] <= 248.0\ngini = 0.375\nsamples = 4\nvalue = [0, 0, 0, 3, 0, 1, 0]"] ;
639 -> 641 ;
642 [label="gini = 0.0\nsamples = 3\nvalue = [0, 0, 0, 3, 0, 0, 0]"] ;
641 -> 642 ;
643 [label="gini = 0.0\nsamples = 1\nvalue = [0, 0, 0, 0, 0, 1, 0]"] ;
641 -> 643 ;
644 [label="gini = 0.0\nsamples = 3\nvalue = [0, 0, 0, 0, 0, 3, 0]"] ;
636 -> 644 ;
645 [label="X[9] <= 1015.0\ngini = 0.494\nsamples = 9\nvalue = [0, 0, 6, 2, 0, 1, 0]"] ;
633 -> 645 ;
646 [label="X[1] <= 102.0\ngini = 0.245\nsamples = 7\nvalue = [0, 0, 6, 0, 0, 1, 0]"] ;
645 -> 646 ;
647 [label="gini = 0.0\nsamples = 6\nvalue = [0, 0, 6, 0, 0, 0, 0]"] ;
646 -> 647 ;
648 [label="gini = 0.0\nsamples = 1\nvalue = [0, 0, 0, 0, 0, 1, 0]"] ;
646 -> 648 ;
649 [label="gini = 0.0\nsamples = 2\nvalue = [0, 0, 0, 2, 0, 0, 0]"] ;
645 -> 649 ;
650 [label="X[27] <= 0.5\ngini = 0.351\nsamples = 24\nvalue = [0, 0, 2, 19, 0, 3, 0]"] ;
632 -> 650 ;
651 [label="X[8] <= 174.5\ngini = 0.244\nsamples = 22\nvalue = [0, 0, 2, 19, 0, 1, 0]"] ;
650 -> 651 ;
652 [label="gini = 0.0\nsamples = 17\nvalue = [0, 0, 0, 17, 0, 0, 0]"] ;
651 -> 652 ;
653 [label="X[14] <= 0.5\ngini = 0.64\nsamples = 5\nvalue = [0, 0, 2, 2, 0, 1, 0]"] ;
651 -> 653 ;
654 [label="X[0] <= 2283.5\ngini = 0.444\nsamples = 3\nvalue = [0, 0, 0, 2, 0, 1, 0]"] ;
653 -> 654 ;
655 [label="gini = 0.0\nsamples = 2\nvalue = [0, 0, 0, 2, 0, 0, 0]"] ;
654 -> 655 ;
656 [label="gini = 0.0\nsamples = 1\nvalue = [0, 0, 0, 0, 0, 1, 0]"] ;
654 -> 656 ;
657 [label="gini = 0.0\nsamples = 2\nvalue = [0, 0, 2, 0, 0, 0, 0]"] ;
653 -> 657 ;
658 [label="gini = 0.0\nsamples = 2\nvalue = [0, 0, 0, 0, 0, 2, 0]"] ;
650 -> 658 ;
659 [label="X[4] <= 66.5\ngini = 0.498\nsamples = 105\nvalue = [0, 0, 26, 10, 0, 69, 0]"] ;
631 -> 659 ;
660 [label="X[6] <= 197.5\ngini = 0.225\nsamples = 62\nvalue = [0, 0, 8, 0, 0, 54, 0]"] ;
659 -> 660 ;
661 [label="X[1] <= 131.0\ngini = 0.444\nsamples = 3\nvalue = [0, 0, 2, 0, 0, 1, 0]"] ;
660 -> 661 ;
662 [label="gini = 0.0\nsamples = 2\nvalue = [0, 0, 2, 0, 0, 0, 0]"] ;
661 -> 662 ;
663 [label="gini = 0.0\nsamples = 1\nvalue = [0, 0, 0, 0, 0, 1, 0]"] ;
661 -> 663 ;
664 [label="X[3] <= 51.0\ngini = 0.183\nsamples = 59\nvalue = [0, 0, 6, 0, 0, 53, 0]"] ;
660 -> 664 ;
665 [label="X[1] <= 107.0\ngini = 0.49\nsamples = 7\nvalue = [0, 0, 3, 0, 0, 4, 0]"] ;
664 -> 665 ;
666 [label="X[15] <= 0.5\ngini = 0.375\nsamples = 4\nvalue = [0, 0, 3, 0, 0, 1, 0]"] ;
665 -> 666 ;
667 [label="gini = 0.0\nsamples = 3\nvalue = [0, 0, 3, 0, 0, 0, 0]"] ;
666 -> 667 ;
668 [label="gini = 0.0\nsamples = 1\nvalue = [0, 0, 0, 0, 0, 1, 0]"] ;
666 -> 668 ;
669 [label="gini = 0.0\nsamples = 3\nvalue = [0, 0, 0, 0, 0, 3, 0]"] ;
665 -> 669 ;
670 [label="X[3] <= 267.5\ngini = 0.109\nsamples = 52\nvalue = [0, 0, 3, 0, 0, 49, 0]"] ;
664 -> 670 ;
671 [label="X[4] <= 61.0\ngini = 0.075\nsamples = 51\nvalue = [0, 0, 2, 0, 0, 49, 0]"] ;
670 -> 671 ;
672 [label="gini = 0.0\nsamples = 42\nvalue = [0, 0, 0, 0, 0, 42, 0]"] ;
671 -> 672 ;
673 [label="X[0] <= 2310.0\ngini = 0.346\nsamples = 9\nvalue = [0, 0, 2, 0, 0, 7, 0]"] ;
671 -> 673 ;
674 [label="X[4] <= 64.0\ngini = 0.444\nsamples = 3\nvalue = [0, 0, 2, 0, 0, 1, 0]"] ;
673 -> 674 ;
675 [label="gini = 0.0\nsamples = 2\nvalue = [0, 0, 2, 0, 0, 0, 0]"] ;
674 -> 675 ;
676 [label="gini = 0.0\nsamples = 1\nvalue = [0, 0, 0, 0, 0, 1, 0]"] ;
674 -> 676 ;
677 [label="gini = 0.0\nsamples = 6\nvalue = [0, 0, 0, 0, 0, 6, 0]"] ;
673 -> 677 ;
678 [label="gini = 0.0\nsamples = 1\nvalue = [0, 0, 1, 0, 0, 0, 0]"] ;
670 -> 678 ;
679 [label="X[8] <= 106.0\ngini = 0.649\nsamples = 43\nvalue = [0, 0, 18, 10, 0, 15, 0]"] ;
659 -> 679 ;
680 [label="X[5] <= 1380.0\ngini = 0.486\nsamples = 25\nvalue = [0, 0, 16, 8, 0, 1, 0]"] ;
679 -> 680 ;
681 [label="X[9] <= 813.5\ngini = 0.551\nsamples = 15\nvalue = [0, 0, 6, 8, 0, 1, 0]"] ;
680 -> 681 ;
682 [label="gini = 0.0\nsamples = 8\nvalue = [0, 0, 0, 8, 0, 0, 0]"] ;
681 -> 682 ;
683 [label="X[5] <= 1025.5\ngini = 0.245\nsamples = 7\nvalue = [0, 0, 6, 0, 0, 1, 0]"] ;
681 -> 683 ;
684 [label="gini = 0.0\nsamples = 1\nvalue = [0, 0, 0, 0, 0, 1, 0]"] ;
683 -> 684 ;
685 [label="gini = 0.0\nsamples = 6\nvalue = [0, 0, 6, 0, 0, 0, 0]"] ;
683 -> 685 ;
686 [label="gini = 0.0\nsamples = 10\nvalue = [0, 0, 10, 0, 0, 0, 0]"] ;
680 -> 686 ;
687 [label="X[0] <= 2315.0\ngini = 0.37\nsamples = 18\nvalue = [0, 0, 2, 2, 0, 14, 0]"] ;
679 -> 687 ;
688 [label="X[15] <= 0.5\ngini = 0.444\nsamples = 3\nvalue = [0, 0, 1, 2, 0, 0, 0]"] ;
687 -> 688 ;
689 [label="gini = 0.0\nsamples = 2\nvalue = [0, 0, 0, 2, 0, 0, 0]"] ;
688 -> 689 ;
690 [label="gini = 0.0\nsamples = 1\nvalue = [0, 0, 1, 0, 0, 0, 0]"] ;
688 -> 690 ;
691 [label="X[3] <= 286.0\ngini = 0.124\nsamples = 15\nvalue = [0, 0, 1, 0, 0, 14, 0]"] ;
687 -> 691 ;
692 [label="gini = 0.0\nsamples = 14\nvalue = [0, 0, 0, 0, 0, 14, 0]"] ;
691 -> 692 ;
693 [label="gini = 0.0\nsamples = 1\nvalue = [0, 0, 1, 0, 0, 0, 0]"] ;
691 -> 693 ;
694 [label="X[9] <= 355.5\ngini = 0.535\nsamples = 70\nvalue = [0, 0, 37, 30, 0, 3, 0]"] ;
630 -> 694 ;
695 [label="X[7] <= 236.5\ngini = 0.153\nsamples = 24\nvalue = [0, 0, 22, 2, 0, 0, 0]"] ;
694 -> 695 ;
696 [label="gini = 0.0\nsamples = 22\nvalue = [0, 0, 22, 0, 0, 0, 0]"] ;
695 -> 696 ;
697 [label="gini = 0.0\nsamples = 2\nvalue = [0, 0, 0, 2, 0, 0, 0]"] ;
695 -> 697 ;
698 [label="X[3] <= 177.0\ngini = 0.519\nsamples = 46\nvalue = [0, 0, 15, 28, 0, 3, 0]"] ;
694 -> 698 ;
699 [label="X[1] <= 100.0\ngini = 0.43\nsamples = 16\nvalue = [0, 0, 11, 5, 0, 0, 0]"] ;
698 -> 699 ;
700 [label="X[2] <= 13.0\ngini = 0.32\nsamples = 5\nvalue = [0, 0, 1, 4, 0, 0, 0]"] ;
699 -> 700 ;
701 [label="gini = 0.0\nsamples = 1\nvalue = [0, 0, 1, 0, 0, 0, 0]"] ;
700 -> 701 ;
702 [label="gini = 0.0\nsamples = 4\nvalue = [0, 0, 0, 4, 0, 0, 0]"] ;
700 -> 702 ;
703 [label="X[4] <= 1.0\ngini = 0.165\nsamples = 11\nvalue = [0, 0, 10, 1, 0, 0, 0]"] ;
699 -> 703 ;
704 [label="gini = 0.0\nsamples = 1\nvalue = [0, 0, 0, 1, 0, 0, 0]"] ;
703 -> 704 ;
705 [label="gini = 0.0\nsamples = 10\nvalue = [0, 0, 10, 0, 0, 0, 0]"] ;
703 -> 705 ;
706 [label="X[5] <= 1289.5\ngini = 0.384\nsamples = 30\nvalue = [0, 0, 4, 23, 0, 3, 0]"] ;
698 -> 706 ;
707 [label="X[5] <= 851.5\ngini = 0.204\nsamples = 26\nvalue = [0, 0, 3, 23, 0, 0, 0]"] ;
706 -> 707 ;
708 [label="gini = 0.0\nsamples = 1\nvalue = [0, 0, 1, 0, 0, 0, 0]"] ;
707 -> 708 ;
709 [label="X[6] <= 212.5\ngini = 0.147\nsamples = 25\nvalue = [0, 0, 2, 23, 0, 0, 0]"] ;
707 -> 709 ;
710 [label="X[1] <= 211.5\ngini = 0.444\nsamples = 6\nvalue = [0, 0, 2, 4, 0, 0, 0]"] ;
709 -> 710 ;
711 [label="gini = 0.0\nsamples = 2\nvalue = [0, 0, 2, 0, 0, 0, 0]"] ;
710 -> 711 ;
712 [label="gini = 0.0\nsamples = 4\nvalue = [0, 0, 0, 4, 0, 0, 0]"] ;
710 -> 712 ;
713 [label="gini = 0.0\nsamples = 19\nvalue = [0, 0, 0, 19, 0, 0, 0]"] ;
709 -> 713 ;
714 [label="X[9] <= 441.5\ngini = 0.375\nsamples = 4\nvalue = [0, 0, 1, 0, 0, 3, 0]"] ;
706 -> 714 ;
715 [label="gini = 0.0\nsamples = 3\nvalue = [0, 0, 0, 0, 0, 3, 0]"] ;
714 -> 715 ;
716 [label="gini = 0.0\nsamples = 1\nvalue = [0, 0, 1, 0, 0, 0, 0]"] ;
714 -> 716 ;
717 [label="X[23] <= 0.5\ngini = 0.195\nsamples = 139\nvalue = [0, 0, 13, 124, 0, 2, 0]"] ;
629 -> 717 ;
718 [label="X[1] <= 294.5\ngini = 0.115\nsamples = 132\nvalue = [0, 0, 6, 124, 0, 2, 0]"] ;
717 -> 718 ;
719 [label="X[1] <= 59.0\ngini = 0.075\nsamples = 129\nvalue = [0, 0, 5, 124, 0, 0, 0]"] ;
718 -> 719 ;
720 [label="X[9] <= 927.5\ngini = 0.5\nsamples = 6\nvalue = [0, 0, 3, 3, 0, 0, 0]"] ;
719 -> 720 ;
721 [label="gini = 0.0\nsamples = 3\nvalue = [0, 0, 3, 0, 0, 0, 0]"] ;
720 -> 721 ;
722 [label="gini = 0.0\nsamples = 3\nvalue = [0, 0, 0, 3, 0, 0, 0]"] ;
720 -> 722 ;
723 [label="X[9] <= 375.5\ngini = 0.032\nsamples = 123\nvalue = [0, 0, 2, 121, 0, 0, 0]"] ;
719 -> 723 ;
724 [label="gini = 0.0\nsamples = 1\nvalue = [0, 0, 1, 0, 0, 0, 0]"] ;
723 -> 724 ;
725 [label="X[4] <= 16.5\ngini = 0.016\nsamples = 122\nvalue = [0, 0, 1, 121, 0, 0, 0]"] ;
723 -> 725 ;
726 [label="X[3] <= 381.5\ngini = 0.165\nsamples = 11\nvalue = [0, 0, 1, 10, 0, 0, 0]"] ;
725 -> 726 ;
727 [label="gini = 0.0\nsamples = 1\nvalue = [0, 0, 1, 0, 0, 0, 0]"] ;
726 -> 727 ;
728 [label="gini = 0.0\nsamples = 10\nvalue = [0, 0, 0, 10, 0, 0, 0]"] ;
726 -> 728 ;
729 [label="gini = 0.0\nsamples = 111\nvalue = [0, 0, 0, 111, 0, 0, 0]"] ;
725 -> 729 ;
730 [label="X[3] <= 331.0\ngini = 0.444\nsamples = 3\nvalue = [0, 0, 1, 0, 0, 2, 0]"] ;
718 -> 730 ;
731 [label="gini = 0.0\nsamples = 2\nvalue = [0, 0, 0, 0, 0, 2, 0]"] ;
730 -> 731 ;
732 [label="gini = 0.0\nsamples = 1\nvalue = [0, 0, 1, 0, 0, 0, 0]"] ;
730 -> 732 ;
733 [label="gini = 0.0\nsamples = 7\nvalue = [0, 0, 7, 0, 0, 0, 0]"] ;
717 -> 733 ;
734 [label="X[5] <= 161.5\ngini = 0.159\nsamples = 752\nvalue = [0, 0, 61, 687, 0, 4, 0]"] ;
460 -> 734 ;
735 [label="gini = 0.0\nsamples = 11\nvalue = [0, 0, 11, 0, 0, 0, 0]"] ;
734 -> 735 ;
736 [label="X[5] <= 1449.5\ngini = 0.136\nsamples = 741\nvalue = [0, 0, 50, 687, 0, 4, 0]"] ;
734 -> 736 ;
737 [label="X[0] <= 2340.0\ngini = 0.108\nsamples = 719\nvalue = [0, 0, 37, 678, 0, 4, 0]"] ;
736 -> 737 ;
738 [label="X[0] <= 2034.5\ngini = 0.07\nsamples = 667\nvalue = [0, 0, 21, 643, 0, 3, 0]"] ;
737 -> 738 ;
739 [label="X[1] <= 69.5\ngini = 0.278\nsamples = 6\nvalue = [0, 0, 5, 1, 0, 0, 0]"] ;
738 -> 739 ;
740 [label="gini = 0.0\nsamples = 1\nvalue = [0, 0, 0, 1, 0, 0, 0]"] ;
739 -> 740 ;
741 [label="gini = 0.0\nsamples = 5\nvalue = [0, 0, 5, 0, 0, 0, 0]"] ;
739 -> 741 ;
742 [label="X[5] <= 323.5\ngini = 0.056\nsamples = 661\nvalue = [0, 0, 16, 642, 0, 3, 0]"] ;
738 -> 742 ;
743 [label="X[9] <= 1335.5\ngini = 0.446\nsamples = 28\nvalue = [0, 0, 5, 20, 0, 3, 0]"] ;
742 -> 743 ;
744 [label="X[6] <= 246.5\ngini = 0.645\nsamples = 11\nvalue = [0, 0, 5, 3, 0, 3, 0]"] ;
743 -> 744 ;
745 [label="gini = 0.0\nsamples = 3\nvalue = [0, 0, 0, 0, 0, 3, 0]"] ;
744 -> 745 ;
746 [label="X[9] <= 551.0\ngini = 0.469\nsamples = 8\nvalue = [0, 0, 5, 3, 0, 0, 0]"] ;
744 -> 746 ;
747 [label="gini = 0.0\nsamples = 3\nvalue = [0, 0, 0, 3, 0, 0, 0]"] ;
746 -> 747 ;
748 [label="gini = 0.0\nsamples = 5\nvalue = [0, 0, 5, 0, 0, 0, 0]"] ;
746 -> 748 ;
749 [label="gini = 0.0\nsamples = 17\nvalue = [0, 0, 0, 17, 0, 0, 0]"] ;
743 -> 749 ;
750 [label="X[5] <= 1149.5\ngini = 0.034\nsamples = 633\nvalue = [0, 0, 11, 622, 0, 0, 0]"] ;
742 -> 750 ;
751 [label="X[0] <= 2069.5\ngini = 0.009\nsamples = 467\nvalue = [0, 0, 2, 465, 0, 0, 0]"] ;
750 -> 751 ;
752 [label="X[9] <= 632.5\ngini = 0.245\nsamples = 7\nvalue = [0, 0, 1, 6, 0, 0, 0]"] ;
751 -> 752 ;
753 [label="gini = 0.0\nsamples = 6\nvalue = [0, 0, 0, 6, 0, 0, 0]"] ;
752 -> 753 ;
754 [label="gini = 0.0\nsamples = 1\nvalue = [0, 0, 1, 0, 0, 0, 0]"] ;
752 -> 754 ;
755 [label="X[4] <= 11.5\ngini = 0.004\nsamples = 460\nvalue = [0, 0, 1, 459, 0, 0, 0]"] ;
751 -> 755 ;
756 [label="X[0] <= 2310.0\ngini = 0.042\nsamples = 47\nvalue = [0, 0, 1, 46, 0, 0, 0]"] ;
755 -> 756 ;
757 [label="gini = 0.0\nsamples = 46\nvalue = [0, 0, 0, 46, 0, 0, 0]"] ;
756 -> 757 ;
758 [label="gini = 0.0\nsamples = 1\nvalue = [0, 0, 1, 0, 0, 0, 0]"] ;
756 -> 758 ;
759 [label="gini = 0.0\nsamples = 413\nvalue = [0, 0, 0, 413, 0, 0, 0]"] ;
755 -> 759 ;
760 [label="X[0] <= 2313.5\ngini = 0.103\nsamples = 166\nvalue = [0, 0, 9, 157, 0, 0, 0]"] ;
750 -> 760 ;
761 [label="X[9] <= 389.0\ngini = 0.071\nsamples = 162\nvalue = [0, 0, 6, 156, 0, 0, 0]"] ;
760 -> 761 ;
762 [label="X[3] <= 57.5\ngini = 0.444\nsamples = 3\nvalue = [0, 0, 2, 1, 0, 0, 0]"] ;
761 -> 762 ;
763 [label="gini = 0.0\nsamples = 1\nvalue = [0, 0, 0, 1, 0, 0, 0]"] ;
762 -> 763 ;
764 [label="gini = 0.0\nsamples = 2\nvalue = [0, 0, 2, 0, 0, 0, 0]"] ;
762 -> 764 ;
765 [label="X[5] <= 1151.5\ngini = 0.049\nsamples = 159\nvalue = [0, 0, 4, 155, 0, 0, 0]"] ;
761 -> 765 ;
766 [label="gini = 0.0\nsamples = 1\nvalue = [0, 0, 1, 0, 0, 0, 0]"] ;
765 -> 766 ;
767 [label="X[9] <= 676.5\ngini = 0.037\nsamples = 158\nvalue = [0, 0, 3, 155, 0, 0, 0]"] ;
765 -> 767 ;
768 [label="X[0] <= 2280.5\ngini = 0.17\nsamples = 32\nvalue = [0, 0, 3, 29, 0, 0, 0]"] ;
767 -> 768 ;
769 [label="gini = 0.0\nsamples = 28\nvalue = [0, 0, 0, 28, 0, 0, 0]"] ;
768 -> 769 ;
770 [label="X[8] <= 55.5\ngini = 0.375\nsamples = 4\nvalue = [0, 0, 3, 1, 0, 0, 0]"] ;
768 -> 770 ;
771 [label="gini = 0.0\nsamples = 1\nvalue = [0, 0, 0, 1, 0, 0, 0]"] ;
770 -> 771 ;
772 [label="gini = 0.0\nsamples = 3\nvalue = [0, 0, 3, 0, 0, 0, 0]"] ;
770 -> 772 ;
773 [label="gini = 0.0\nsamples = 126\nvalue = [0, 0, 0, 126, 0, 0, 0]"] ;
767 -> 773 ;
774 [label="X[3] <= 285.0\ngini = 0.375\nsamples = 4\nvalue = [0, 0, 3, 1, 0, 0, 0]"] ;
760 -> 774 ;
775 [label="gini = 0.0\nsamples = 3\nvalue = [0, 0, 3, 0, 0, 0, 0]"] ;
774 -> 775 ;
776 [label="gini = 0.0\nsamples = 1\nvalue = [0, 0, 0, 1, 0, 0, 0]"] ;
774 -> 776 ;
777 [label="X[4] <= 98.5\ngini = 0.452\nsamples = 52\nvalue = [0, 0, 16, 35, 0, 1, 0]"] ;
737 -> 777 ;
778 [label="X[9] <= 532.5\ngini = 0.277\nsamples = 19\nvalue = [0, 0, 16, 2, 0, 1, 0]"] ;
777 -> 778 ;
779 [label="X[3] <= 196.0\ngini = 0.444\nsamples = 3\nvalue = [0, 0, 0, 2, 0, 1, 0]"] ;
778 -> 779 ;
780 [label="gini = 0.0\nsamples = 1\nvalue = [0, 0, 0, 0, 0, 1, 0]"] ;
779 -> 780 ;
781 [label="gini = 0.0\nsamples = 2\nvalue = [0, 0, 0, 2, 0, 0, 0]"] ;
779 -> 781 ;
782 [label="gini = 0.0\nsamples = 16\nvalue = [0, 0, 16, 0, 0, 0, 0]"] ;
778 -> 782 ;
783 [label="gini = 0.0\nsamples = 33\nvalue = [0, 0, 0, 33, 0, 0, 0]"] ;
777 -> 783 ;
784 [label="X[0] <= 2185.0\ngini = 0.483\nsamples = 22\nvalue = [0, 0, 13, 9, 0, 0, 0]"] ;
736 -> 784 ;
785 [label="gini = 0.0\nsamples = 6\nvalue = [0, 0, 0, 6, 0, 0, 0]"] ;
784 -> 785 ;
786 [label="X[2] <= 18.5\ngini = 0.305\nsamples = 16\nvalue = [0, 0, 13, 3, 0, 0, 0]"] ;
784 -> 786 ;
787 [label="gini = 0.0\nsamples = 2\nvalue = [0, 0, 0, 2, 0, 0, 0]"] ;
786 -> 787 ;
788 [label="X[9] <= 822.0\ngini = 0.133\nsamples = 14\nvalue = [0, 0, 13, 1, 0, 0, 0]"] ;
786 -> 788 ;
789 [label="gini = 0.0\nsamples = 13\nvalue = [0, 0, 13, 0, 0, 0, 0]"] ;
788 -> 789 ;
790 [label="gini = 0.0\nsamples = 1\nvalue = [0, 0, 0, 1, 0, 0, 0]"] ;
788 -> 790 ;
791 [label="X[17] <= 0.5\ngini = 0.624\nsamples = 2773\nvalue = [11, 106, 1110, 126, 152, 1268, 0]"] ;
3 -> 791 ;
792 [label="X[23] <= 0.5\ngini = 0.622\nsamples = 2309\nvalue = [9, 104, 725, 126, 143, 1202, 0]"] ;
791 -> 792 ;
793 [label="X[3] <= 76.0\ngini = 0.688\nsamples = 1413\nvalue = [4, 76, 529, 119, 131, 554, 0]"] ;
792 -> 793 ;
794 [label="X[12] <= 0.5\ngini = 0.659\nsamples = 439\nvalue = [4, 19, 72, 62, 50, 232, 0]"] ;
793 -> 794 ;
795 [label="X[3] <= 15.0\ngini = 0.611\nsamples = 121\nvalue = [0, 1, 20, 62, 0, 38, 0]"] ;
794 -> 795 ;
796 [label="X[29] <= 0.5\ngini = 0.283\nsamples = 62\nvalue = [0, 0, 6, 52, 0, 4, 0]"] ;
795 -> 796 ;
797 [label="X[7] <= 185.5\ngini = 0.191\nsamples = 57\nvalue = [0, 0, 5, 51, 0, 1, 0]"] ;
796 -> 797 ;
798 [label="gini = 0.0\nsamples = 1\nvalue = [0, 0, 1, 0, 0, 0, 0]"] ;
797 -> 798 ;
799 [label="X[9] <= 331.0\ngini = 0.165\nsamples = 56\nvalue = [0, 0, 4, 51, 0, 1, 0]"] ;
797 -> 799 ;
800 [label="gini = 0.0\nsamples = 1\nvalue = [0, 0, 1, 0, 0, 0, 0]"] ;
799 -> 800 ;
801 [label="X[9] <= 1610.0\ngini = 0.137\nsamples = 55\nvalue = [0, 0, 3, 51, 0, 1, 0]"] ;
799 -> 801 ;
802 [label="X[5] <= 893.0\ngini = 0.106\nsamples = 54\nvalue = [0, 0, 2, 51, 0, 1, 0]"] ;
801 -> 802 ;
803 [label="X[5] <= 777.0\ngini = 0.042\nsamples = 47\nvalue = [0, 0, 0, 46, 0, 1, 0]"] ;
802 -> 803 ;
804 [label="gini = 0.0\nsamples = 41\nvalue = [0, 0, 0, 41, 0, 0, 0]"] ;
803 -> 804 ;
805 [label="X[9] <= 1078.0\ngini = 0.278\nsamples = 6\nvalue = [0, 0, 0, 5, 0, 1, 0]"] ;
803 -> 805 ;
806 [label="gini = 0.0\nsamples = 5\nvalue = [0, 0, 0, 5, 0, 0, 0]"] ;
805 -> 806 ;
807 [label="gini = 0.0\nsamples = 1\nvalue = [0, 0, 0, 0, 0, 1, 0]"] ;
805 -> 807 ;
808 [label="X[9] <= 1019.5\ngini = 0.408\nsamples = 7\nvalue = [0, 0, 2, 5, 0, 0, 0]"] ;
802 -> 808 ;
809 [label="gini = 0.0\nsamples = 5\nvalue = [0, 0, 0, 5, 0, 0, 0]"] ;
808 -> 809 ;
810 [label="gini = 0.0\nsamples = 2\nvalue = [0, 0, 2, 0, 0, 0, 0]"] ;
808 -> 810 ;
811 [label="gini = 0.0\nsamples = 1\nvalue = [0, 0, 1, 0, 0, 0, 0]"] ;
801 -> 811 ;
812 [label="X[0] <= 2386.0\ngini = 0.56\nsamples = 5\nvalue = [0, 0, 1, 1, 0, 3, 0]"] ;
796 -> 812 ;
813 [label="X[0] <= 2377.0\ngini = 0.5\nsamples = 2\nvalue = [0, 0, 1, 1, 0, 0, 0]"] ;
812 -> 813 ;
814 [label="gini = 0.0\nsamples = 1\nvalue = [0, 0, 0, 1, 0, 0, 0]"] ;
813 -> 814 ;
815 [label="gini = 0.0\nsamples = 1\nvalue = [0, 0, 1, 0, 0, 0, 0]"] ;
813 -> 815 ;
816 [label="gini = 0.0\nsamples = 3\nvalue = [0, 0, 0, 0, 0, 3, 0]"] ;
812 -> 816 ;
817 [label="X[8] <= 119.5\ngini = 0.583\nsamples = 59\nvalue = [0, 1, 14, 10, 0, 34, 0]"] ;
795 -> 817 ;
818 [label="X[18] <= 0.5\ngini = 0.586\nsamples = 18\nvalue = [0, 0, 10, 5, 0, 3, 0]"] ;
817 -> 818 ;
819 [label="X[0] <= 2454.0\ngini = 0.165\nsamples = 11\nvalue = [0, 0, 10, 1, 0, 0, 0]"] ;
818 -> 819 ;
820 [label="gini = 0.0\nsamples = 9\nvalue = [0, 0, 9, 0, 0, 0, 0]"] ;
819 -> 820 ;
821 [label="X[1] <= 79.5\ngini = 0.5\nsamples = 2\nvalue = [0, 0, 1, 1, 0, 0, 0]"] ;
819 -> 821 ;
822 [label="gini = 0.0\nsamples = 1\nvalue = [0, 0, 1, 0, 0, 0, 0]"] ;
821 -> 822 ;
823 [label="gini = 0.0\nsamples = 1\nvalue = [0, 0, 0, 1, 0, 0, 0]"] ;
821 -> 823 ;
824 [label="X[0] <= 2396.5\ngini = 0.49\nsamples = 7\nvalue = [0, 0, 0, 4, 0, 3, 0]"] ;
818 -> 824 ;
825 [label="gini = 0.0\nsamples = 3\nvalue = [0, 0, 0, 0, 0, 3, 0]"] ;
824 -> 825 ;
826 [label="gini = 0.0\nsamples = 4\nvalue = [0, 0, 0, 4, 0, 0, 0]"] ;
824 -> 826 ;
827 [label="X[4] <= 14.5\ngini = 0.403\nsamples = 41\nvalue = [0, 1, 4, 5, 0, 31, 0]"] ;
817 -> 827 ;
828 [label="X[8] <= 171.0\ngini = 0.348\nsamples = 39\nvalue = [0, 1, 2, 5, 0, 31, 0]"] ;
827 -> 828 ;
829 [label="X[8] <= 134.5\ngini = 0.279\nsamples = 37\nvalue = [0, 0, 1, 5, 0, 31, 0]"] ;
828 -> 829 ;
830 [label="X[9] <= 1324.5\ngini = 0.524\nsamples = 15\nvalue = [0, 0, 1, 5, 0, 9, 0]"] ;
829 -> 830 ;
831 [label="X[5] <= 375.5\ngini = 0.571\nsamples = 7\nvalue = [0, 0, 1, 4, 0, 2, 0]"] ;
830 -> 831 ;
832 [label="gini = 0.0\nsamples = 2\nvalue = [0, 0, 0, 0, 0, 2, 0]"] ;
831 -> 832 ;
833 [label="X[29] <= 0.5\ngini = 0.32\nsamples = 5\nvalue = [0, 0, 1, 4, 0, 0, 0]"] ;
831 -> 833 ;
834 [label="gini = 0.0\nsamples = 4\nvalue = [0, 0, 0, 4, 0, 0, 0]"] ;
833 -> 834 ;
835 [label="gini = 0.0\nsamples = 1\nvalue = [0, 0, 1, 0, 0, 0, 0]"] ;
833 -> 835 ;
836 [label="X[18] <= 0.5\ngini = 0.219\nsamples = 8\nvalue = [0, 0, 0, 1, 0, 7, 0]"] ;
830 -> 836 ;
837 [label="gini = 0.0\nsamples = 7\nvalue = [0, 0, 0, 0, 0, 7, 0]"] ;
836 -> 837 ;
838 [label="gini = 0.0\nsamples = 1\nvalue = [0, 0, 0, 1, 0, 0, 0]"] ;
836 -> 838 ;
839 [label="gini = 0.0\nsamples = 22\nvalue = [0, 0, 0, 0, 0, 22, 0]"] ;
829 -> 839 ;
840 [label="X[4] <= 6.5\ngini = 0.5\nsamples = 2\nvalue = [0, 1, 1, 0, 0, 0, 0]"] ;
828 -> 840 ;
841 [label="gini = 0.0\nsamples = 1\nvalue = [0, 1, 0, 0, 0, 0, 0]"] ;
840 -> 841 ;
842 [label="gini = 0.0\nsamples = 1\nvalue = [0, 0, 1, 0, 0, 0, 0]"] ;
840 -> 842 ;
843 [label="gini = 0.0\nsamples = 2\nvalue = [0, 0, 2, 0, 0, 0, 0]"] ;
827 -> 843 ;
844 [label="X[0] <= 2587.5\ngini = 0.573\nsamples = 318\nvalue = [4, 18, 52, 0, 50, 194, 0]"] ;
794 -> 844 ;
845 [label="X[16] <= 0.5\ngini = 0.372\nsamples = 199\nvalue = [0, 6, 33, 0, 6, 154, 0]"] ;
844 -> 845 ;
846 [label="X[0] <= 2537.0\ngini = 0.318\nsamples = 184\nvalue = [0, 5, 23, 0, 6, 150, 0]"] ;
845 -> 846 ;
847 [label="X[4] <= 4.5\ngini = 0.175\nsamples = 115\nvalue = [0, 1, 10, 0, 0, 104, 0]"] ;
846 -> 847 ;
848 [label="X[8] <= 190.0\ngini = 0.043\nsamples = 90\nvalue = [0, 0, 2, 0, 0, 88, 0]"] ;
847 -> 848 ;
849 [label="X[8] <= 175.5\ngini = 0.022\nsamples = 88\nvalue = [0, 0, 1, 0, 0, 87, 0]"] ;
848 -> 849 ;
850 [label="gini = 0.0\nsamples = 79\nvalue = [0, 0, 0, 0, 0, 79, 0]"] ;
849 -> 850 ;
851 [label="X[8] <= 178.0\ngini = 0.198\nsamples = 9\nvalue = [0, 0, 1, 0, 0, 8, 0]"] ;
849 -> 851 ;
852 [label="X[5] <= 1178.0\ngini = 0.5\nsamples = 2\nvalue = [0, 0, 1, 0, 0, 1, 0]"] ;
851 -> 852 ;
853 [label="gini = 0.0\nsamples = 1\nvalue = [0, 0, 1, 0, 0, 0, 0]"] ;
852 -> 853 ;
854 [label="gini = 0.0\nsamples = 1\nvalue = [0, 0, 0, 0, 0, 1, 0]"] ;
852 -> 854 ;
855 [label="gini = 0.0\nsamples = 7\nvalue = [0, 0, 0, 0, 0, 7, 0]"] ;
851 -> 855 ;
856 [label="X[9] <= 1488.5\ngini = 0.5\nsamples = 2\nvalue = [0, 0, 1, 0, 0, 1, 0]"] ;
848 -> 856 ;
857 [label="gini = 0.0\nsamples = 1\nvalue = [0, 0, 0, 0, 0, 1, 0]"] ;
856 -> 857 ;
858 [label="gini = 0.0\nsamples = 1\nvalue = [0, 0, 1, 0, 0, 0, 0]"] ;
856 -> 858 ;
859 [label="X[7] <= 234.5\ngini = 0.486\nsamples = 25\nvalue = [0, 1, 8, 0, 0, 16, 0]"] ;
847 -> 859 ;
860 [label="X[24] <= 0.5\ngini = 0.227\nsamples = 16\nvalue = [0, 1, 1, 0, 0, 14, 0]"] ;
859 -> 860 ;
861 [label="X[3] <= 63.5\ngini = 0.124\nsamples = 15\nvalue = [0, 0, 1, 0, 0, 14, 0]"] ;
860 -> 861 ;
862 [label="gini = 0.0\nsamples = 14\nvalue = [0, 0, 0, 0, 0, 14, 0]"] ;
861 -> 862 ;
863 [label="gini = 0.0\nsamples = 1\nvalue = [0, 0, 1, 0, 0, 0, 0]"] ;
861 -> 863 ;
864 [label="gini = 0.0\nsamples = 1\nvalue = [0, 1, 0, 0, 0, 0, 0]"] ;
860 -> 864 ;
865 [label="X[3] <= 54.5\ngini = 0.346\nsamples = 9\nvalue = [0, 0, 7, 0, 0, 2, 0]"] ;
859 -> 865 ;
866 [label="X[1] <= 243.0\ngini = 0.219\nsamples = 8\nvalue = [0, 0, 7, 0, 0, 1, 0]"] ;
865 -> 866 ;
867 [label="gini = 0.0\nsamples = 6\nvalue = [0, 0, 6, 0, 0, 0, 0]"] ;
866 -> 867 ;
868 [label="X[9] <= 1114.0\ngini = 0.5\nsamples = 2\nvalue = [0, 0, 1, 0, 0, 1, 0]"] ;
866 -> 868 ;
869 [label="gini = 0.0\nsamples = 1\nvalue = [0, 0, 1, 0, 0, 0, 0]"] ;
868 -> 869 ;
870 [label="gini = 0.0\nsamples = 1\nvalue = [0, 0, 0, 0, 0, 1, 0]"] ;
868 -> 870 ;
871 [label="gini = 0.0\nsamples = 1\nvalue = [0, 0, 0, 0, 0, 1, 0]"] ;
865 -> 871 ;
872 [label="X[7] <= 236.0\ngini = 0.509\nsamples = 69\nvalue = [0, 4, 13, 0, 6, 46, 0]"] ;
846 -> 872 ;
873 [label="X[1] <= 10.0\ngini = 0.365\nsamples = 56\nvalue = [0, 3, 6, 0, 3, 44, 0]"] ;
872 -> 873 ;
874 [label="gini = 0.0\nsamples = 2\nvalue = [0, 0, 0, 0, 2, 0, 0]"] ;
873 -> 874 ;
875 [label="X[9] <= 1262.5\ngini = 0.32\nsamples = 54\nvalue = [0, 3, 6, 0, 1, 44, 0]"] ;
873 -> 875 ;
876 [label="X[5] <= 996.0\ngini = 0.526\nsamples = 21\nvalue = [0, 2, 6, 0, 0, 13, 0]"] ;
875 -> 876 ;
877 [label="gini = 0.0\nsamples = 10\nvalue = [0, 0, 0, 0, 0, 10, 0]"] ;
876 -> 877 ;
878 [label="X[4] <= 1.0\ngini = 0.595\nsamples = 11\nvalue = [0, 2, 6, 0, 0, 3, 0]"] ;
876 -> 878 ;
879 [label="gini = 0.0\nsamples = 5\nvalue = [0, 0, 5, 0, 0, 0, 0]"] ;
878 -> 879 ;
880 [label="X[5] <= 1040.5\ngini = 0.611\nsamples = 6\nvalue = [0, 2, 1, 0, 0, 3, 0]"] ;
878 -> 880 ;
881 [label="gini = 0.0\nsamples = 1\nvalue = [0, 0, 1, 0, 0, 0, 0]"] ;
880 -> 881 ;
882 [label="X[46] <= 0.5\ngini = 0.48\nsamples = 5\nvalue = [0, 2, 0, 0, 0, 3, 0]"] ;
880 -> 882 ;
883 [label="X[5] <= 1294.5\ngini = 0.444\nsamples = 3\nvalue = [0, 2, 0, 0, 0, 1, 0]"] ;
882 -> 883 ;
884 [label="gini = 0.0\nsamples = 2\nvalue = [0, 2, 0, 0, 0, 0, 0]"] ;
883 -> 884 ;
885 [label="gini = 0.0\nsamples = 1\nvalue = [0, 0, 0, 0, 0, 1, 0]"] ;
883 -> 885 ;
886 [label="gini = 0.0\nsamples = 2\nvalue = [0, 0, 0, 0, 0, 2, 0]"] ;
882 -> 886 ;
887 [label="X[4] <= 5.5\ngini = 0.116\nsamples = 33\nvalue = [0, 1, 0, 0, 1, 31, 0]"] ;
875 -> 887 ;
888 [label="gini = 0.0\nsamples = 28\nvalue = [0, 0, 0, 0, 0, 28, 0]"] ;
887 -> 888 ;
889 [label="X[7] <= 221.5\ngini = 0.56\nsamples = 5\nvalue = [0, 1, 0, 0, 1, 3, 0]"] ;
887 -> 889 ;
890 [label="gini = 0.0\nsamples = 3\nvalue = [0, 0, 0, 0, 0, 3, 0]"] ;
889 -> 890 ;
891 [label="X[9] <= 1644.5\ngini = 0.5\nsamples = 2\nvalue = [0, 1, 0, 0, 1, 0, 0]"] ;
889 -> 891 ;
892 [label="gini = 0.0\nsamples = 1\nvalue = [0, 1, 0, 0, 0, 0, 0]"] ;
891 -> 892 ;
893 [label="gini = 0.0\nsamples = 1\nvalue = [0, 0, 0, 0, 1, 0, 0]"] ;
891 -> 893 ;
894 [label="X[9] <= 1175.0\ngini = 0.627\nsamples = 13\nvalue = [0, 1, 7, 0, 3, 2, 0]"] ;
872 -> 894 ;
895 [label="gini = 0.0\nsamples = 2\nvalue = [0, 0, 0, 0, 2, 0, 0]"] ;
894 -> 895 ;
896 [label="X[6] <= 235.0\ngini = 0.545\nsamples = 11\nvalue = [0, 1, 7, 0, 1, 2, 0]"] ;
894 -> 896 ;
897 [label="X[1] <= 261.5\ngini = 0.46\nsamples = 10\nvalue = [0, 0, 7, 0, 1, 2, 0]"] ;
896 -> 897 ;
898 [label="X[30] <= 0.5\ngini = 0.346\nsamples = 9\nvalue = [0, 0, 7, 0, 0, 2, 0]"] ;
897 -> 898 ;
899 [label="gini = 0.0\nsamples = 5\nvalue = [0, 0, 5, 0, 0, 0, 0]"] ;
898 -> 899 ;
900 [label="X[0] <= 2555.5\ngini = 0.5\nsamples = 4\nvalue = [0, 0, 2, 0, 0, 2, 0]"] ;
898 -> 900 ;
901 [label="gini = 0.0\nsamples = 2\nvalue = [0, 0, 0, 0, 0, 2, 0]"] ;
900 -> 901 ;
902 [label="gini = 0.0\nsamples = 2\nvalue = [0, 0, 2, 0, 0, 0, 0]"] ;
900 -> 902 ;
903 [label="gini = 0.0\nsamples = 1\nvalue = [0, 0, 0, 0, 1, 0, 0]"] ;
897 -> 903 ;
904 [label="gini = 0.0\nsamples = 1\nvalue = [0, 1, 0, 0, 0, 0, 0]"] ;
896 -> 904 ;
905 [label="X[0] <= 2388.5\ngini = 0.48\nsamples = 15\nvalue = [0, 1, 10, 0, 0, 4, 0]"] ;
845 -> 905 ;
906 [label="gini = 0.0\nsamples = 3\nvalue = [0, 0, 0, 0, 0, 3, 0]"] ;
905 -> 906 ;
907 [label="X[0] <= 2538.5\ngini = 0.292\nsamples = 12\nvalue = [0, 1, 10, 0, 0, 1, 0]"] ;
905 -> 907 ;
908 [label="gini = 0.0\nsamples = 7\nvalue = [0, 0, 7, 0, 0, 0, 0]"] ;
907 -> 908 ;
909 [label="X[4] <= 6.5\ngini = 0.56\nsamples = 5\nvalue = [0, 1, 3, 0, 0, 1, 0]"] ;
907 -> 909 ;
910 [label="X[8] <= 180.0\ngini = 0.5\nsamples = 2\nvalue = [0, 1, 0, 0, 0, 1, 0]"] ;
909 -> 910 ;
911 [label="gini = 0.0\nsamples = 1\nvalue = [0, 0, 0, 0, 0, 1, 0]"] ;
910 -> 911 ;
912 [label="gini = 0.0\nsamples = 1\nvalue = [0, 1, 0, 0, 0, 0, 0]"] ;
910 -> 912 ;
913 [label="gini = 0.0\nsamples = 3\nvalue = [0, 0, 3, 0, 0, 0, 0]"] ;
909 -> 913 ;
914 [label="X[9] <= 1144.5\ngini = 0.714\nsamples = 119\nvalue = [4, 12, 19, 0, 44, 40, 0]"] ;
844 -> 914 ;
915 [label="X[1] <= 39.5\ngini = 0.593\nsamples = 52\nvalue = [1, 8, 5, 0, 31, 7, 0]"] ;
914 -> 915 ;
916 [label="X[5] <= 1507.5\ngini = 0.219\nsamples = 8\nvalue = [0, 1, 0, 0, 0, 7, 0]"] ;
915 -> 916 ;
917 [label="gini = 0.0\nsamples = 7\nvalue = [0, 0, 0, 0, 0, 7, 0]"] ;
916 -> 917 ;
918 [label="gini = 0.0\nsamples = 1\nvalue = [0, 1, 0, 0, 0, 0, 0]"] ;
916 -> 918 ;
919 [label="X[4] <= 3.0\ngini = 0.465\nsamples = 44\nvalue = [1, 7, 5, 0, 31, 0, 0]"] ;
915 -> 919 ;
920 [label="X[2] <= 6.5\ngini = 0.317\nsamples = 38\nvalue = [0, 4, 3, 0, 31, 0, 0]"] ;
919 -> 920 ;
921 [label="X[6] <= 219.5\ngini = 0.444\nsamples = 3\nvalue = [0, 2, 1, 0, 0, 0, 0]"] ;
920 -> 921 ;
922 [label="gini = 0.0\nsamples = 1\nvalue = [0, 0, 1, 0, 0, 0, 0]"] ;
921 -> 922 ;
923 [label="gini = 0.0\nsamples = 2\nvalue = [0, 2, 0, 0, 0, 0, 0]"] ;
921 -> 923 ;
924 [label="X[33] <= 0.5\ngini = 0.209\nsamples = 35\nvalue = [0, 2, 2, 0, 31, 0, 0]"] ;
920 -> 924 ;
925 [label="X[7] <= 250.5\ngini = 0.164\nsamples = 34\nvalue = [0, 1, 2, 0, 31, 0, 0]"] ;
924 -> 925 ;
926 [label="X[5] <= 1115.5\ngini = 0.114\nsamples = 33\nvalue = [0, 0, 2, 0, 31, 0, 0]"] ;
925 -> 926 ;
927 [label="gini = 0.0\nsamples = 1\nvalue = [0, 0, 1, 0, 0, 0, 0]"] ;
926 -> 927 ;
928 [label="X[0] <= 2604.5\ngini = 0.061\nsamples = 32\nvalue = [0, 0, 1, 0, 31, 0, 0]"] ;
926 -> 928 ;
929 [label="X[3] <= 30.0\ngini = 0.5\nsamples = 2\nvalue = [0, 0, 1, 0, 1, 0, 0]"] ;
928 -> 929 ;
930 [label="gini = 0.0\nsamples = 1\nvalue = [0, 0, 0, 0, 1, 0, 0]"] ;
929 -> 930 ;
931 [label="gini = 0.0\nsamples = 1\nvalue = [0, 0, 1, 0, 0, 0, 0]"] ;
929 -> 931 ;
932 [label="gini = 0.0\nsamples = 30\nvalue = [0, 0, 0, 0, 30, 0, 0]"] ;
928 -> 932 ;
933 [label="gini = 0.0\nsamples = 1\nvalue = [0, 1, 0, 0, 0, 0, 0]"] ;
925 -> 933 ;
934 [label="gini = 0.0\nsamples = 1\nvalue = [0, 1, 0, 0, 0, 0, 0]"] ;
924 -> 934 ;
935 [label="X[15] <= 0.5\ngini = 0.611\nsamples = 6\nvalue = [1, 3, 2, 0, 0, 0, 0]"] ;
919 -> 935 ;
936 [label="X[9] <= 689.5\ngini = 0.375\nsamples = 4\nvalue = [1, 3, 0, 0, 0, 0, 0]"] ;
935 -> 936 ;
937 [label="gini = 0.0\nsamples = 1\nvalue = [1, 0, 0, 0, 0, 0, 0]"] ;
936 -> 937 ;
938 [label="gini = 0.0\nsamples = 3\nvalue = [0, 3, 0, 0, 0, 0, 0]"] ;
936 -> 938 ;
939 [label="gini = 0.0\nsamples = 2\nvalue = [0, 0, 2, 0, 0, 0, 0]"] ;
935 -> 939 ;
940 [label="X[5] <= 1366.0\ngini = 0.671\nsamples = 67\nvalue = [3, 4, 14, 0, 13, 33, 0]"] ;
914 -> 940 ;
941 [label="X[46] <= 0.5\ngini = 0.539\nsamples = 16\nvalue = [1, 4, 0, 0, 10, 1, 0]"] ;
940 -> 941 ;
942 [label="X[3] <= 15.0\ngini = 0.379\nsamples = 13\nvalue = [1, 2, 0, 0, 10, 0, 0]"] ;
941 -> 942 ;
943 [label="X[8] <= 138.0\ngini = 0.5\nsamples = 2\nvalue = [1, 1, 0, 0, 0, 0, 0]"] ;
942 -> 943 ;
944 [label="gini = 0.0\nsamples = 1\nvalue = [0, 1, 0, 0, 0, 0, 0]"] ;
943 -> 944 ;
945 [label="gini = 0.0\nsamples = 1\nvalue = [1, 0, 0, 0, 0, 0, 0]"] ;
943 -> 945 ;
946 [label="X[0] <= 2674.5\ngini = 0.165\nsamples = 11\nvalue = [0, 1, 0, 0, 10, 0, 0]"] ;
942 -> 946 ;
947 [label="gini = 0.0\nsamples = 10\nvalue = [0, 0, 0, 0, 10, 0, 0]"] ;
946 -> 947 ;
948 [label="gini = 0.0\nsamples = 1\nvalue = [0, 1, 0, 0, 0, 0, 0]"] ;
946 -> 948 ;
949 [label="X[9] <= 1487.0\ngini = 0.444\nsamples = 3\nvalue = [0, 2, 0, 0, 0, 1, 0]"] ;
941 -> 949 ;
950 [label="gini = 0.0\nsamples = 1\nvalue = [0, 0, 0, 0, 0, 1, 0]"] ;
949 -> 950 ;
951 [label="gini = 0.0\nsamples = 2\nvalue = [0, 2, 0, 0, 0, 0, 0]"] ;
949 -> 951 ;
952 [label="X[6] <= 238.5\ngini = 0.526\nsamples = 51\nvalue = [2, 0, 14, 0, 3, 32, 0]"] ;
940 -> 952 ;
953 [label="X[2] <= 11.5\ngini = 0.472\nsamples = 46\nvalue = [2, 0, 9, 0, 3, 32, 0]"] ;
952 -> 953 ;
954 [label="X[9] <= 2357.5\ngini = 0.615\nsamples = 20\nvalue = [0, 0, 8, 0, 3, 9, 0]"] ;
953 -> 954 ;
955 [label="X[3] <= 51.0\ngini = 0.544\nsamples = 13\nvalue = [0, 0, 8, 0, 3, 2, 0]"] ;
954 -> 955 ;
956 [label="X[1] <= 173.5\ngini = 0.32\nsamples = 10\nvalue = [0, 0, 8, 0, 0, 2, 0]"] ;
955 -> 956 ;
957 [label="gini = 0.0\nsamples = 7\nvalue = [0, 0, 7, 0, 0, 0, 0]"] ;
956 -> 957 ;
958 [label="X[6] <= 202.0\ngini = 0.444\nsamples = 3\nvalue = [0, 0, 1, 0, 0, 2, 0]"] ;
956 -> 958 ;
959 [label="gini = 0.0\nsamples = 1\nvalue = [0, 0, 1, 0, 0, 0, 0]"] ;
958 -> 959 ;
960 [label="gini = 0.0\nsamples = 2\nvalue = [0, 0, 0, 0, 0, 2, 0]"] ;
958 -> 960 ;
961 [label="gini = 0.0\nsamples = 3\nvalue = [0, 0, 0, 0, 3, 0, 0]"] ;
955 -> 961 ;
962 [label="gini = 0.0\nsamples = 7\nvalue = [0, 0, 0, 0, 0, 7, 0]"] ;
954 -> 962 ;
963 [label="X[7] <= 253.5\ngini = 0.21\nsamples = 26\nvalue = [2, 0, 1, 0, 0, 23, 0]"] ;
953 -> 963 ;
964 [label="X[4] <= -6.5\ngini = 0.147\nsamples = 25\nvalue = [2, 0, 0, 0, 0, 23, 0]"] ;
963 -> 964 ;
965 [label="gini = 0.0\nsamples = 1\nvalue = [1, 0, 0, 0, 0, 0, 0]"] ;
964 -> 965 ;
966 [label="X[9] <= 1149.5\ngini = 0.08\nsamples = 24\nvalue = [1, 0, 0, 0, 0, 23, 0]"] ;
964 -> 966 ;
967 [label="gini = 0.0\nsamples = 1\nvalue = [1, 0, 0, 0, 0, 0, 0]"] ;
966 -> 967 ;
968 [label="gini = 0.0\nsamples = 23\nvalue = [0, 0, 0, 0, 0, 23, 0]"] ;
966 -> 968 ;
969 [label="gini = 0.0\nsamples = 1\nvalue = [0, 0, 1, 0, 0, 0, 0]"] ;
963 -> 969 ;
970 [label="gini = 0.0\nsamples = 5\nvalue = [0, 0, 5, 0, 0, 0, 0]"] ;
952 -> 970 ;
971 [label="X[6] <= 187.5\ngini = 0.657\nsamples = 974\nvalue = [0, 57, 457, 57, 81, 322, 0]"] ;
793 -> 971 ;
972 [label="X[1] <= 258.5\ngini = 0.496\nsamples = 152\nvalue = [0, 7, 34, 3, 6, 102, 0]"] ;
971 -> 972 ;
973 [label="X[0] <= 2640.0\ngini = 0.581\nsamples = 31\nvalue = [0, 5, 19, 2, 3, 2, 0]"] ;
972 -> 973 ;
974 [label="X[0] <= 2381.5\ngini = 0.403\nsamples = 25\nvalue = [0, 2, 19, 2, 0, 2, 0]"] ;
973 -> 974 ;
975 [label="X[19] <= 0.5\ngini = 0.5\nsamples = 4\nvalue = [0, 0, 0, 2, 0, 2, 0]"] ;
974 -> 975 ;
976 [label="gini = 0.0\nsamples = 2\nvalue = [0, 0, 0, 0, 0, 2, 0]"] ;
975 -> 976 ;
977 [label="gini = 0.0\nsamples = 2\nvalue = [0, 0, 0, 2, 0, 0, 0]"] ;
975 -> 977 ;
978 [label="X[8] <= 192.5\ngini = 0.172\nsamples = 21\nvalue = [0, 2, 19, 0, 0, 0, 0]"] ;
974 -> 978 ;
979 [label="X[8] <= 161.0\ngini = 0.5\nsamples = 4\nvalue = [0, 2, 2, 0, 0, 0, 0]"] ;
978 -> 979 ;
980 [label="gini = 0.0\nsamples = 2\nvalue = [0, 0, 2, 0, 0, 0, 0]"] ;
979 -> 980 ;
981 [label="gini = 0.0\nsamples = 2\nvalue = [0, 2, 0, 0, 0, 0, 0]"] ;
979 -> 981 ;
982 [label="gini = 0.0\nsamples = 17\nvalue = [0, 0, 17, 0, 0, 0, 0]"] ;
978 -> 982 ;
983 [label="X[4] <= 27.0\ngini = 0.5\nsamples = 6\nvalue = [0, 3, 0, 0, 3, 0, 0]"] ;
973 -> 983 ;
984 [label="gini = 0.0\nsamples = 3\nvalue = [0, 0, 0, 0, 3, 0, 0]"] ;
983 -> 984 ;
985 [label="gini = 0.0\nsamples = 3\nvalue = [0, 3, 0, 0, 0, 0, 0]"] ;
983 -> 985 ;
986 [label="X[5] <= 543.5\ngini = 0.301\nsamples = 121\nvalue = [0, 2, 15, 1, 3, 100, 0]"] ;
972 -> 986 ;
987 [label="X[12] <= 0.5\ngini = 0.426\nsamples = 13\nvalue = [0, 0, 9, 0, 0, 4, 0]"] ;
986 -> 987 ;
988 [label="gini = 0.0\nsamples = 8\nvalue = [0, 0, 8, 0, 0, 0, 0]"] ;
987 -> 988 ;
989 [label="X[9] <= 705.0\ngini = 0.32\nsamples = 5\nvalue = [0, 0, 1, 0, 0, 4, 0]"] ;
987 -> 989 ;
990 [label="gini = 0.0\nsamples = 4\nvalue = [0, 0, 0, 0, 0, 4, 0]"] ;
989 -> 990 ;
991 [label="gini = 0.0\nsamples = 1\nvalue = [0, 0, 1, 0, 0, 0, 0]"] ;
989 -> 991 ;
992 [label="X[36] <= 0.5\ngini = 0.206\nsamples = 108\nvalue = [0, 2, 6, 1, 3, 96, 0]"] ;
986 -> 992 ;
993 [label="X[4] <= 180.5\ngini = 0.176\nsamples = 106\nvalue = [0, 2, 6, 1, 1, 96, 0]"] ;
992 -> 993 ;
994 [label="X[4] <= 0.5\ngini = 0.146\nsamples = 104\nvalue = [0, 2, 4, 1, 1, 96, 0]"] ;
993 -> 994 ;
995 [label="gini = 0.0\nsamples = 1\nvalue = [0, 0, 0, 0, 1, 0, 0]"] ;
994 -> 995 ;
996 [label="X[5] <= 2193.0\ngini = 0.129\nsamples = 103\nvalue = [0, 2, 4, 1, 0, 96, 0]"] ;
994 -> 996 ;
997 [label="X[1] <= 354.0\ngini = 0.112\nsamples = 102\nvalue = [0, 1, 4, 1, 0, 96, 0]"] ;
996 -> 997 ;
998 [label="X[5] <= 607.5\ngini = 0.095\nsamples = 101\nvalue = [0, 1, 3, 1, 0, 96, 0]"] ;
997 -> 998 ;
999 [label="X[5] <= 575.0\ngini = 0.5\nsamples = 2\nvalue = [0, 1, 0, 0, 0, 1, 0]"] ;
998 -> 999 ;
1000 [label="gini = 0.0\nsamples = 1\nvalue = [0, 0, 0, 0, 0, 1, 0]"] ;
999 -> 1000 ;
1001 [label="gini = 0.0\nsamples = 1\nvalue = [0, 1, 0, 0, 0, 0, 0]"] ;
999 -> 1001 ;
1002 [label="X[15] <= 0.5\ngini = 0.078\nsamples = 99\nvalue = [0, 0, 3, 1, 0, 95, 0]"] ;
998 -> 1002 ;
1003 [label="X[0] <= 2378.5\ngini = 0.044\nsamples = 89\nvalue = [0, 0, 1, 1, 0, 87, 0]"] ;
1002 -> 1003 ;
1004 [label="X[4] <= 96.0\ngini = 0.5\nsamples = 2\nvalue = [0, 0, 0, 1, 0, 1, 0]"] ;
1003 -> 1004 ;
1005 [label="gini = 0.0\nsamples = 1\nvalue = [0, 0, 0, 1, 0, 0, 0]"] ;
1004 -> 1005 ;
1006 [label="gini = 0.0\nsamples = 1\nvalue = [0, 0, 0, 0, 0, 1, 0]"] ;
1004 -> 1006 ;
1007 [label="X[4] <= 15.5\ngini = 0.023\nsamples = 87\nvalue = [0, 0, 1, 0, 0, 86, 0]"] ;
1003 -> 1007 ;
1008 [label="X[2] <= 15.0\ngini = 0.32\nsamples = 5\nvalue = [0, 0, 1, 0, 0, 4, 0]"] ;
1007 -> 1008 ;
1009 [label="gini = 0.0\nsamples = 1\nvalue = [0, 0, 1, 0, 0, 0, 0]"] ;
1008 -> 1009 ;
1010 [label="gini = 0.0\nsamples = 4\nvalue = [0, 0, 0, 0, 0, 4, 0]"] ;
1008 -> 1010 ;
1011 [label="gini = 0.0\nsamples = 82\nvalue = [0, 0, 0, 0, 0, 82, 0]"] ;
1007 -> 1011 ;
1012 [label="X[7] <= 244.0\ngini = 0.32\nsamples = 10\nvalue = [0, 0, 2, 0, 0, 8, 0]"] ;
1002 -> 1012 ;
1013 [label="X[0] <= 2589.5\ngini = 0.198\nsamples = 9\nvalue = [0, 0, 1, 0, 0, 8, 0]"] ;
1012 -> 1013 ;
1014 [label="gini = 0.0\nsamples = 7\nvalue = [0, 0, 0, 0, 0, 7, 0]"] ;
1013 -> 1014 ;
1015 [label="X[7] <= 218.5\ngini = 0.5\nsamples = 2\nvalue = [0, 0, 1, 0, 0, 1, 0]"] ;
1013 -> 1015 ;
1016 [label="gini = 0.0\nsamples = 1\nvalue = [0, 0, 0, 0, 0, 1, 0]"] ;
1015 -> 1016 ;
1017 [label="gini = 0.0\nsamples = 1\nvalue = [0, 0, 1, 0, 0, 0, 0]"] ;
1015 -> 1017 ;
1018 [label="gini = 0.0\nsamples = 1\nvalue = [0, 0, 1, 0, 0, 0, 0]"] ;
1012 -> 1018 ;
1019 [label="gini = 0.0\nsamples = 1\nvalue = [0, 0, 1, 0, 0, 0, 0]"] ;
997 -> 1019 ;
1020 [label="gini = 0.0\nsamples = 1\nvalue = [0, 1, 0, 0, 0, 0, 0]"] ;
996 -> 1020 ;
1021 [label="gini = 0.0\nsamples = 2\nvalue = [0, 0, 2, 0, 0, 0, 0]"] ;
993 -> 1021 ;
1022 [label="gini = 0.0\nsamples = 2\nvalue = [0, 0, 0, 0, 2, 0, 0]"] ;
992 -> 1022 ;
1023 [label="X[0] <= 2397.5\ngini = 0.647\nsamples = 822\nvalue = [0, 50, 423, 54, 75, 220, 0]"] ;
971 -> 1023 ;
1024 [label="X[9] <= 1458.0\ngini = 0.637\nsamples = 107\nvalue = [0, 0, 35, 49, 0, 23, 0]"] ;
1023 -> 1024 ;
1025 [label="X[5] <= 861.0\ngini = 0.568\nsamples = 61\nvalue = [0, 0, 33, 6, 0, 22, 0]"] ;
1024 -> 1025 ;
1026 [label="X[9] <= 1010.5\ngini = 0.542\nsamples = 34\nvalue = [0, 0, 11, 3, 0, 20, 0]"] ;
1025 -> 1026 ;
1027 [label="X[6] <= 238.0\ngini = 0.601\nsamples = 23\nvalue = [0, 0, 11, 3, 0, 9, 0]"] ;
1026 -> 1027 ;
1028 [label="X[5] <= 711.0\ngini = 0.43\nsamples = 11\nvalue = [0, 0, 1, 2, 0, 8, 0]"] ;
1027 -> 1028 ;
1029 [label="X[6] <= 193.0\ngini = 0.219\nsamples = 8\nvalue = [0, 0, 1, 0, 0, 7, 0]"] ;
1028 -> 1029 ;
1030 [label="gini = 0.0\nsamples = 1\nvalue = [0, 0, 1, 0, 0, 0, 0]"] ;
1029 -> 1030 ;
1031 [label="gini = 0.0\nsamples = 7\nvalue = [0, 0, 0, 0, 0, 7, 0]"] ;
1029 -> 1031 ;
1032 [label="X[7] <= 222.5\ngini = 0.444\nsamples = 3\nvalue = [0, 0, 0, 2, 0, 1, 0]"] ;
1028 -> 1032 ;
1033 [label="gini = 0.0\nsamples = 1\nvalue = [0, 0, 0, 0, 0, 1, 0]"] ;
1032 -> 1033 ;
1034 [label="gini = 0.0\nsamples = 2\nvalue = [0, 0, 0, 2, 0, 0, 0]"] ;
1032 -> 1034 ;
1035 [label="X[8] <= 50.5\ngini = 0.292\nsamples = 12\nvalue = [0, 0, 10, 1, 0, 1, 0]"] ;
1027 -> 1035 ;
1036 [label="X[5] <= 554.0\ngini = 0.5\nsamples = 2\nvalue = [0, 0, 0, 1, 0, 1, 0]"] ;
1035 -> 1036 ;
1037 [label="gini = 0.0\nsamples = 1\nvalue = [0, 0, 0, 0, 0, 1, 0]"] ;
1036 -> 1037 ;
1038 [label="gini = 0.0\nsamples = 1\nvalue = [0, 0, 0, 1, 0, 0, 0]"] ;
1036 -> 1038 ;
1039 [label="gini = 0.0\nsamples = 10\nvalue = [0, 0, 10, 0, 0, 0, 0]"] ;
1035 -> 1039 ;
1040 [label="gini = 0.0\nsamples = 11\nvalue = [0, 0, 0, 0, 0, 11, 0]"] ;
1026 -> 1040 ;
1041 [label="X[2] <= 20.0\ngini = 0.318\nsamples = 27\nvalue = [0, 0, 22, 3, 0, 2, 0]"] ;
1025 -> 1041 ;
1042 [label="X[8] <= 170.5\ngini = 0.159\nsamples = 23\nvalue = [0, 0, 21, 2, 0, 0, 0]"] ;
1041 -> 1042 ;
1043 [label="X[9] <= 672.5\ngini = 0.087\nsamples = 22\nvalue = [0, 0, 21, 1, 0, 0, 0]"] ;
1042 -> 1043 ;
1044 [label="X[3] <= 237.0\ngini = 0.32\nsamples = 5\nvalue = [0, 0, 4, 1, 0, 0, 0]"] ;
1043 -> 1044 ;
1045 [label="gini = 0.0\nsamples = 4\nvalue = [0, 0, 4, 0, 0, 0, 0]"] ;
1044 -> 1045 ;
1046 [label="gini = 0.0\nsamples = 1\nvalue = [0, 0, 0, 1, 0, 0, 0]"] ;
1044 -> 1046 ;
1047 [label="gini = 0.0\nsamples = 17\nvalue = [0, 0, 17, 0, 0, 0, 0]"] ;
1043 -> 1047 ;
1048 [label="gini = 0.0\nsamples = 1\nvalue = [0, 0, 0, 1, 0, 0, 0]"] ;
1042 -> 1048 ;
1049 [label="X[1] <= 99.5\ngini = 0.625\nsamples = 4\nvalue = [0, 0, 1, 1, 0, 2, 0]"] ;
1041 -> 1049 ;
1050 [label="gini = 0.0\nsamples = 2\nvalue = [0, 0, 0, 0, 0, 2, 0]"] ;
1049 -> 1050 ;
1051 [label="X[19] <= 0.5\ngini = 0.5\nsamples = 2\nvalue = [0, 0, 1, 1, 0, 0, 0]"] ;
1049 -> 1051 ;
1052 [label="gini = 0.0\nsamples = 1\nvalue = [0, 0, 1, 0, 0, 0, 0]"] ;
1051 -> 1052 ;
1053 [label="gini = 0.0\nsamples = 1\nvalue = [0, 0, 0, 1, 0, 0, 0]"] ;
1051 -> 1053 ;
1054 [label="X[4] <= 82.5\ngini = 0.124\nsamples = 46\nvalue = [0, 0, 2, 43, 0, 1, 0]"] ;
1024 -> 1054 ;
1055 [label="gini = 0.0\nsamples = 1\nvalue = [0, 0, 0, 0, 0, 1, 0]"] ;
1054 -> 1055 ;
1056 [label="X[1] <= 24.0\ngini = 0.085\nsamples = 45\nvalue = [0, 0, 2, 43, 0, 0, 0]"] ;
1054 -> 1056 ;
1057 [label="gini = 0.0\nsamples = 1\nvalue = [0, 0, 1, 0, 0, 0, 0]"] ;
1056 -> 1057 ;
1058 [label="X[0] <= 2393.0\ngini = 0.044\nsamples = 44\nvalue = [0, 0, 1, 43, 0, 0, 0]"] ;
1056 -> 1058 ;
1059 [label="gini = 0.0\nsamples = 40\nvalue = [0, 0, 0, 40, 0, 0, 0]"] ;
1058 -> 1059 ;
1060 [label="X[0] <= 2395.0\ngini = 0.375\nsamples = 4\nvalue = [0, 0, 1, 3, 0, 0, 0]"] ;
1058 -> 1060 ;
1061 [label="gini = 0.0\nsamples = 1\nvalue = [0, 0, 1, 0, 0, 0, 0]"] ;
1060 -> 1061 ;
1062 [label="gini = 0.0\nsamples = 3\nvalue = [0, 0, 0, 3, 0, 0, 0]"] ;
1060 -> 1062 ;
1063 [label="X[4] <= 26.5\ngini = 0.614\nsamples = 715\nvalue = [0, 50, 388, 5, 75, 197, 0]"] ;
1023 -> 1063 ;
1064 [label="X[0] <= 2551.0\ngini = 0.713\nsamples = 218\nvalue = [0, 21, 81, 1, 62, 53, 0]"] ;
1063 -> 1064 ;
1065 [label="X[4] <= 13.5\ngini = 0.554\nsamples = 73\nvalue = [0, 4, 41, 1, 1, 26, 0]"] ;
1064 -> 1065 ;
1066 [label="X[0] <= 2427.5\ngini = 0.563\nsamples = 36\nvalue = [0, 3, 14, 0, 0, 19, 0]"] ;
1065 -> 1066 ;
1067 [label="X[9] <= 330.5\ngini = 0.219\nsamples = 8\nvalue = [0, 0, 7, 0, 0, 1, 0]"] ;
1066 -> 1067 ;
